digraph Tree {
node [shape=box, style="filled, rounded", color="black", fontname="helvetica"] ;
edge [fontname="helvetica"] ;
0 [label="y均值 <= 5263910.5\ngini = 0.541\nsamples = 5600\nvalue = [3464, 1317, 819]\nclass = 0", fillcolor="#f2c09c"] ;
1 [label="y方差 <= 2951.24\ngini = 0.311\nsamples = 3612\nvalue = [2950, 152, 510]\nclass = 0", fillcolor="#eb9c63"] ;
0 -> 1 [labeldistance=2.5, labelangle=45, headlabel="True"] ;
2 [label="y均值 <= 5116151.75\ngini = 0.511\nsamples = 1166\nvalue = [705, 56, 405]\nclass = 0", fillcolor="#f5cdb1"] ;
1 -> 2 ;
3 [label="方向方差 <= 120.331\ngini = 0.116\nsamples = 295\nvalue = [277, 7, 11]\nclass = 0", fillcolor="#e78946"] ;
2 -> 3 ;
4 [label="x均值 <= 6232452.0\ngini = 0.087\nsamples = 290\nvalue = [277, 7, 6]\nclass = 0", fillcolor="#e68742"] ;
3 -> 4 ;
5 [label="x最小值 <= 6005970.0\ngini = 0.068\nsamples = 287\nvalue = [277, 7, 3]\nclass = 0", fillcolor="#e68640"] ;
4 -> 5 ;
6 [label="x均值 <= 5379498.25\ngini = 0.529\nsamples = 23\nvalue = [14, 7, 2]\nclass = 0", fillcolor="#f4c8a8"] ;
5 -> 6 ;
7 [label="x最大值 <= 5229952.75\ngini = 0.304\nsamples = 17\nvalue = [14, 2, 1]\nclass = 0", fillcolor="#ea9a61"] ;
6 -> 7 ;
8 [label="y最大值 <= 4608357.0\ngini = 0.444\nsamples = 3\nvalue = [1, 2, 0]\nclass = 1", fillcolor="#9cf2c0"] ;
7 -> 8 ;
9 [label="gini = 0.0\nsamples = 2\nvalue = [0, 2, 0]\nclass = 1", fillcolor="#39e581"] ;
8 -> 9 ;
10 [label="gini = 0.0\nsamples = 1\nvalue = [1, 0, 0]\nclass = 0", fillcolor="#e58139"] ;
8 -> 10 ;
11 [label="y最小值 <= 4819693.0\ngini = 0.133\nsamples = 14\nvalue = [13, 0, 1]\nclass = 0", fillcolor="#e78b48"] ;
7 -> 11 ;
12 [label="gini = 0.0\nsamples = 13\nvalue = [13, 0, 0]\nclass = 0", fillcolor="#e58139"] ;
11 -> 12 ;
13 [label="gini = 0.0\nsamples = 1\nvalue = [0, 0, 1]\nclass = 2", fillcolor="#8139e5"] ;
11 -> 13 ;
14 [label="方向方差 <= 107.207\ngini = 0.278\nsamples = 6\nvalue = [0, 5, 1]\nclass = 1", fillcolor="#61ea9a"] ;
6 -> 14 ;
15 [label="gini = 0.0\nsamples = 1\nvalue = [0, 0, 1]\nclass = 2", fillcolor="#8139e5"] ;
14 -> 15 ;
16 [label="gini = 0.0\nsamples = 5\nvalue = [0, 5, 0]\nclass = 1", fillcolor="#39e581"] ;
14 -> 16 ;
17 [label="速度均值 <= 0.01\ngini = 0.008\nsamples = 264\nvalue = [263, 0, 1]\nclass = 0", fillcolor="#e5813a"] ;
5 -> 17 ;
18 [label="x方差 <= 37.458\ngini = 0.245\nsamples = 7\nvalue = [6, 0, 1]\nclass = 0", fillcolor="#e9965a"] ;
17 -> 18 ;
19 [label="gini = 0.0\nsamples = 6\nvalue = [6, 0, 0]\nclass = 0", fillcolor="#e58139"] ;
18 -> 19 ;
20 [label="gini = 0.0\nsamples = 1\nvalue = [0, 0, 1]\nclass = 2", fillcolor="#8139e5"] ;
18 -> 20 ;
21 [label="gini = 0.0\nsamples = 257\nvalue = [257, 0, 0]\nclass = 0", fillcolor="#e58139"] ;
17 -> 21 ;
22 [label="gini = 0.0\nsamples = 3\nvalue = [0, 0, 3]\nclass = 2", fillcolor="#8139e5"] ;
4 -> 22 ;
23 [label="gini = 0.0\nsamples = 5\nvalue = [0, 0, 5]\nclass = 2", fillcolor="#8139e5"] ;
3 -> 23 ;
24 [label="x均值 <= 6115408.25\ngini = 0.551\nsamples = 871\nvalue = [428, 49, 394]\nclass = 0", fillcolor="#fdf6f1"] ;
2 -> 24 ;
25 [label="x均值 <= 6088802.25\ngini = 0.22\nsamples = 99\nvalue = [4, 8, 87]\nclass = 2", fillcolor="#9253e8"] ;
24 -> 25 ;
26 [label="gini = 0.0\nsamples = 2\nvalue = [0, 2, 0]\nclass = 1", fillcolor="#39e581"] ;
25 -> 26 ;
27 [label="x方差 <= 9.067\ngini = 0.19\nsamples = 97\nvalue = [4, 6, 87]\nclass = 2", fillcolor="#8f4fe8"] ;
25 -> 27 ;
28 [label="x最大值 <= 6110458.0\ngini = 0.519\nsamples = 17\nvalue = [3, 3, 11]\nclass = 2", fillcolor="#b78ef0"] ;
27 -> 28 ;
29 [label="方向均值 <= 83.117\ngini = 0.337\nsamples = 14\nvalue = [0, 3, 11]\nclass = 2", fillcolor="#a36fec"] ;
28 -> 29 ;
30 [label="gini = 0.0\nsamples = 11\nvalue = [0, 0, 11]\nclass = 2", fillcolor="#8139e5"] ;
29 -> 30 ;
31 [label="gini = 0.0\nsamples = 3\nvalue = [0, 3, 0]\nclass = 1", fillcolor="#39e581"] ;
29 -> 31 ;
32 [label="gini = 0.0\nsamples = 3\nvalue = [3, 0, 0]\nclass = 0", fillcolor="#e58139"] ;
28 -> 32 ;
33 [label="速度最大值 <= 0.435\ngini = 0.096\nsamples = 80\nvalue = [1, 3, 76]\nclass = 2", fillcolor="#8843e6"] ;
27 -> 33 ;
34 [label="方向均值 <= 67.884\ngini = 0.375\nsamples = 8\nvalue = [0, 2, 6]\nclass = 2", fillcolor="#ab7bee"] ;
33 -> 34 ;
35 [label="gini = 0.0\nsamples = 6\nvalue = [0, 0, 6]\nclass = 2", fillcolor="#8139e5"] ;
34 -> 35 ;
36 [label="gini = 0.0\nsamples = 2\nvalue = [0, 2, 0]\nclass = 1", fillcolor="#39e581"] ;
34 -> 36 ;
37 [label="方向最大值 <= 353.5\ngini = 0.054\nsamples = 72\nvalue = [1, 1, 70]\nclass = 2", fillcolor="#853fe6"] ;
33 -> 37 ;
38 [label="方向最大值 <= 352.5\ngini = 0.32\nsamples = 5\nvalue = [0, 1, 4]\nclass = 2", fillcolor="#a06aec"] ;
37 -> 38 ;
39 [label="gini = 0.0\nsamples = 4\nvalue = [0, 0, 4]\nclass = 2", fillcolor="#8139e5"] ;
38 -> 39 ;
40 [label="gini = 0.0\nsamples = 1\nvalue = [0, 1, 0]\nclass = 1", fillcolor="#39e581"] ;
38 -> 40 ;
41 [label="速度均值 <= 0.141\ngini = 0.029\nsamples = 67\nvalue = [1, 0, 66]\nclass = 2", fillcolor="#833ce5"] ;
37 -> 41 ;
42 [label="速度方差 <= 0.201\ngini = 0.444\nsamples = 3\nvalue = [1, 0, 2]\nclass = 2", fillcolor="#c09cf2"] ;
41 -> 42 ;
43 [label="gini = 0.0\nsamples = 2\nvalue = [0, 0, 2]\nclass = 2", fillcolor="#8139e5"] ;
42 -> 43 ;
44 [label="gini = 0.0\nsamples = 1\nvalue = [1, 0, 0]\nclass = 0", fillcolor="#e58139"] ;
42 -> 44 ;
45 [label="gini = 0.0\nsamples = 64\nvalue = [0, 0, 64]\nclass = 2", fillcolor="#8139e5"] ;
41 -> 45 ;
46 [label="方向均值 <= 137.557\ngini = 0.537\nsamples = 772\nvalue = [424, 41, 307]\nclass = 0", fillcolor="#f8dfcd"] ;
24 -> 46 ;
47 [label="x均值 <= 6251724.5\ngini = 0.526\nsamples = 710\nvalue = [416, 41, 253]\nclass = 0", fillcolor="#f6d2b8"] ;
46 -> 47 ;
48 [label="y均值 <= 5238633.0\ngini = 0.501\nsamples = 641\nvalue = [403, 35, 203]\nclass = 0", fillcolor="#f3c5a5"] ;
47 -> 48 ;
49 [label="x均值 <= 6160371.0\ngini = 0.55\nsamples = 443\nvalue = [223, 25, 195]\nclass = 0", fillcolor="#fcf1e9"] ;
48 -> 49 ;
50 [label="x最大值 <= 6149837.75\ngini = 0.386\nsamples = 159\nvalue = [120, 6, 33]\nclass = 0", fillcolor="#eda876"] ;
49 -> 50 ;
51 [label="y均值 <= 5134794.75\ngini = 0.503\nsamples = 105\nvalue = [66, 6, 33]\nclass = 0", fillcolor="#f3c5a4"] ;
50 -> 51 ;
52 [label="x最大值 <= 6118259.0\ngini = 0.238\nsamples = 60\nvalue = [52, 6, 2]\nclass = 0", fillcolor="#e99456"] ;
51 -> 52 ;
53 [label="y最大值 <= 5133312.25\ngini = 0.059\nsamples = 33\nvalue = [32, 1, 0]\nclass = 0", fillcolor="#e6853f"] ;
52 -> 53 ;
54 [label="gini = 0.0\nsamples = 32\nvalue = [32, 0, 0]\nclass = 0", fillcolor="#e58139"] ;
53 -> 54 ;
55 [label="gini = 0.0\nsamples = 1\nvalue = [0, 1, 0]\nclass = 1", fillcolor="#39e581"] ;
53 -> 55 ;
56 [label="y最小值 <= 5130943.75\ngini = 0.412\nsamples = 27\nvalue = [20, 5, 2]\nclass = 0", fillcolor="#eda978"] ;
52 -> 56 ;
57 [label="y方差 <= 57.334\ngini = 0.244\nsamples = 22\nvalue = [19, 1, 2]\nclass = 0", fillcolor="#e99457"] ;
56 -> 57 ;
58 [label="x最小值 <= 6118405.5\ngini = 0.105\nsamples = 18\nvalue = [17, 0, 1]\nclass = 0", fillcolor="#e78845"] ;
57 -> 58 ;
59 [label="gini = 0.0\nsamples = 14\nvalue = [14, 0, 0]\nclass = 0", fillcolor="#e58139"] ;
58 -> 59 ;
60 [label="x最小值 <= 6118505.25\ngini = 0.375\nsamples = 4\nvalue = [3, 0, 1]\nclass = 0", fillcolor="#eeab7b"] ;
58 -> 60 ;
61 [label="gini = 0.0\nsamples = 1\nvalue = [0, 0, 1]\nclass = 2", fillcolor="#8139e5"] ;
60 -> 61 ;
62 [label="gini = 0.0\nsamples = 3\nvalue = [3, 0, 0]\nclass = 0", fillcolor="#e58139"] ;
60 -> 62 ;
63 [label="方向最大值 <= 353.5\ngini = 0.625\nsamples = 4\nvalue = [2, 1, 1]\nclass = 0", fillcolor="#f6d5bd"] ;
57 -> 63 ;
64 [label="速度均值 <= 0.125\ngini = 0.5\nsamples = 2\nvalue = [0, 1, 1]\nclass = 1", fillcolor="#ffffff"] ;
63 -> 64 ;
65 [label="gini = 0.0\nsamples = 1\nvalue = [0, 0, 1]\nclass = 2", fillcolor="#8139e5"] ;
64 -> 65 ;
66 [label="gini = 0.0\nsamples = 1\nvalue = [0, 1, 0]\nclass = 1", fillcolor="#39e581"] ;
64 -> 66 ;
67 [label="gini = 0.0\nsamples = 2\nvalue = [2, 0, 0]\nclass = 0", fillcolor="#e58139"] ;
63 -> 67 ;
68 [label="方向方差 <= 57.56\ngini = 0.32\nsamples = 5\nvalue = [1, 4, 0]\nclass = 1", fillcolor="#6aeca0"] ;
56 -> 68 ;
69 [label="gini = 0.0\nsamples = 4\nvalue = [0, 4, 0]\nclass = 1", fillcolor="#39e581"] ;
68 -> 69 ;
70 [label="gini = 0.0\nsamples = 1\nvalue = [1, 0, 0]\nclass = 0", fillcolor="#e58139"] ;
68 -> 70 ;
71 [label="x均值 <= 6139206.0\ngini = 0.429\nsamples = 45\nvalue = [14, 0, 31]\nclass = 2", fillcolor="#ba92f1"] ;
51 -> 71 ;
72 [label="速度均值 <= 0.223\ngini = 0.272\nsamples = 37\nvalue = [6, 0, 31]\nclass = 2", fillcolor="#995fea"] ;
71 -> 72 ;
73 [label="x方差 <= 12.867\ngini = 0.121\nsamples = 31\nvalue = [2, 0, 29]\nclass = 2", fillcolor="#8a47e7"] ;
72 -> 73 ;
74 [label="速度最大值 <= 4.29\ngini = 0.408\nsamples = 7\nvalue = [2, 0, 5]\nclass = 2", fillcolor="#b388ef"] ;
73 -> 74 ;
75 [label="速度方差 <= 0.193\ngini = 0.444\nsamples = 3\nvalue = [2, 0, 1]\nclass = 0", fillcolor="#f2c09c"] ;
74 -> 75 ;
76 [label="gini = 0.0\nsamples = 1\nvalue = [0, 0, 1]\nclass = 2", fillcolor="#8139e5"] ;
75 -> 76 ;
77 [label="gini = 0.0\nsamples = 2\nvalue = [2, 0, 0]\nclass = 0", fillcolor="#e58139"] ;
75 -> 77 ;
78 [label="gini = 0.0\nsamples = 4\nvalue = [0, 0, 4]\nclass = 2", fillcolor="#8139e5"] ;
74 -> 78 ;
79 [label="gini = 0.0\nsamples = 24\nvalue = [0, 0, 24]\nclass = 2", fillcolor="#8139e5"] ;
73 -> 79 ;
80 [label="速度方差 <= 0.882\ngini = 0.444\nsamples = 6\nvalue = [4, 0, 2]\nclass = 0", fillcolor="#f2c09c"] ;
72 -> 80 ;
81 [label="gini = 0.0\nsamples = 4\nvalue = [4, 0, 0]\nclass = 0", fillcolor="#e58139"] ;
80 -> 81 ;
82 [label="gini = 0.0\nsamples = 2\nvalue = [0, 0, 2]\nclass = 2", fillcolor="#8139e5"] ;
80 -> 82 ;
83 [label="gini = 0.0\nsamples = 8\nvalue = [8, 0, 0]\nclass = 0", fillcolor="#e58139"] ;
71 -> 83 ;
84 [label="gini = 0.0\nsamples = 54\nvalue = [54, 0, 0]\nclass = 0", fillcolor="#e58139"] ;
50 -> 84 ;
85 [label="x均值 <= 6180020.0\ngini = 0.539\nsamples = 284\nvalue = [103, 19, 162]\nclass = 2", fillcolor="#d6bef7"] ;
49 -> 85 ;
86 [label="gini = 0.0\nsamples = 76\nvalue = [0, 0, 76]\nclass = 2", fillcolor="#8139e5"] ;
85 -> 86 ;
87 [label="y最大值 <= 5195463.5\ngini = 0.575\nsamples = 208\nvalue = [103, 19, 86]\nclass = 0", fillcolor="#fbede3"] ;
85 -> 87 ;
88 [label="y均值 <= 5192839.25\ngini = 0.381\nsamples = 121\nvalue = [90, 0, 31]\nclass = 0", fillcolor="#eeac7d"] ;
87 -> 88 ;
89 [label="x均值 <= 6180387.0\ngini = 0.499\nsamples = 63\nvalue = [33, 0, 30]\nclass = 0", fillcolor="#fdf4ed"] ;
88 -> 89 ;
90 [label="方向均值 <= 101.928\ngini = 0.457\nsamples = 48\nvalue = [31, 0, 17]\nclass = 0", fillcolor="#f3c6a6"] ;
89 -> 90 ;
91 [label="y最大值 <= 5192648.0\ngini = 0.472\nsamples = 21\nvalue = [8, 0, 13]\nclass = 2", fillcolor="#cfb3f5"] ;
90 -> 91 ;
92 [label="方向方差 <= 117.54\ngini = 0.245\nsamples = 7\nvalue = [6, 0, 1]\nclass = 0", fillcolor="#e9965a"] ;
91 -> 92 ;
93 [label="gini = 0.0\nsamples = 6\nvalue = [6, 0, 0]\nclass = 0", fillcolor="#e58139"] ;
92 -> 93 ;
94 [label="gini = 0.0\nsamples = 1\nvalue = [0, 0, 1]\nclass = 2", fillcolor="#8139e5"] ;
92 -> 94 ;
95 [label="y最小值 <= 5191855.75\ngini = 0.245\nsamples = 14\nvalue = [2, 0, 12]\nclass = 2", fillcolor="#965ae9"] ;
91 -> 95 ;
96 [label="gini = 0.0\nsamples = 1\nvalue = [1, 0, 0]\nclass = 0", fillcolor="#e58139"] ;
95 -> 96 ;
97 [label="x方差 <= 35.48\ngini = 0.142\nsamples = 13\nvalue = [1, 0, 12]\nclass = 2", fillcolor="#8c49e7"] ;
95 -> 97 ;
98 [label="x最大值 <= 6180238.5\ngini = 0.5\nsamples = 2\nvalue = [1, 0, 1]\nclass = 0", fillcolor="#ffffff"] ;
97 -> 98 ;
99 [label="gini = 0.0\nsamples = 1\nvalue = [0, 0, 1]\nclass = 2", fillcolor="#8139e5"] ;
98 -> 99 ;
100 [label="gini = 0.0\nsamples = 1\nvalue = [1, 0, 0]\nclass = 0", fillcolor="#e58139"] ;
98 -> 100 ;
101 [label="gini = 0.0\nsamples = 11\nvalue = [0, 0, 11]\nclass = 2", fillcolor="#8139e5"] ;
97 -> 101 ;
102 [label="速度均值 <= 0.219\ngini = 0.252\nsamples = 27\nvalue = [23, 0, 4]\nclass = 0", fillcolor="#ea975b"] ;
90 -> 102 ;
103 [label="方向最大值 <= 358.5\ngini = 0.463\nsamples = 11\nvalue = [7, 0, 4]\nclass = 0", fillcolor="#f4c9aa"] ;
102 -> 103 ;
104 [label="gini = 0.0\nsamples = 5\nvalue = [5, 0, 0]\nclass = 0", fillcolor="#e58139"] ;
103 -> 104 ;
105 [label="y方差 <= 61.467\ngini = 0.444\nsamples = 6\nvalue = [2, 0, 4]\nclass = 2", fillcolor="#c09cf2"] ;
103 -> 105 ;
106 [label="gini = 0.0\nsamples = 3\nvalue = [0, 0, 3]\nclass = 2", fillcolor="#8139e5"] ;
105 -> 106 ;
107 [label="方向方差 <= 122.336\ngini = 0.444\nsamples = 3\nvalue = [2, 0, 1]\nclass = 0", fillcolor="#f2c09c"] ;
105 -> 107 ;
108 [label="gini = 0.0\nsamples = 2\nvalue = [2, 0, 0]\nclass = 0", fillcolor="#e58139"] ;
107 -> 108 ;
109 [label="gini = 0.0\nsamples = 1\nvalue = [0, 0, 1]\nclass = 2", fillcolor="#8139e5"] ;
107 -> 109 ;
110 [label="gini = 0.0\nsamples = 16\nvalue = [16, 0, 0]\nclass = 0", fillcolor="#e58139"] ;
102 -> 110 ;
111 [label="y最小值 <= 5186416.5\ngini = 0.231\nsamples = 15\nvalue = [2, 0, 13]\nclass = 2", fillcolor="#9457e9"] ;
89 -> 111 ;
112 [label="gini = 0.0\nsamples = 2\nvalue = [2, 0, 0]\nclass = 0", fillcolor="#e58139"] ;
111 -> 112 ;
113 [label="gini = 0.0\nsamples = 13\nvalue = [0, 0, 13]\nclass = 2", fillcolor="#8139e5"] ;
111 -> 113 ;
114 [label="速度均值 <= 0.137\ngini = 0.034\nsamples = 58\nvalue = [57, 0, 1]\nclass = 0", fillcolor="#e5833c"] ;
88 -> 114 ;
115 [label="gini = 0.0\nsamples = 1\nvalue = [0, 0, 1]\nclass = 2", fillcolor="#8139e5"] ;
114 -> 115 ;
116 [label="gini = 0.0\nsamples = 57\nvalue = [57, 0, 0]\nclass = 0", fillcolor="#e58139"] ;
114 -> 116 ;
117 [label="y均值 <= 5224906.0\ngini = 0.53\nsamples = 87\nvalue = [13, 19, 55]\nclass = 2", fillcolor="#bc96f1"] ;
87 -> 117 ;
118 [label="方向均值 <= 39.324\ngini = 0.232\nsamples = 46\nvalue = [1, 5, 40]\nclass = 2", fillcolor="#9356e9"] ;
117 -> 118 ;
119 [label="gini = 0.0\nsamples = 5\nvalue = [0, 5, 0]\nclass = 1", fillcolor="#39e581"] ;
118 -> 119 ;
120 [label="x均值 <= 6181686.0\ngini = 0.048\nsamples = 41\nvalue = [1, 0, 40]\nclass = 2", fillcolor="#843ee6"] ;
118 -> 120 ;
121 [label="x方差 <= 764.544\ngini = 0.444\nsamples = 3\nvalue = [1, 0, 2]\nclass = 2", fillcolor="#c09cf2"] ;
120 -> 121 ;
122 [label="gini = 0.0\nsamples = 2\nvalue = [0, 0, 2]\nclass = 2", fillcolor="#8139e5"] ;
121 -> 122 ;
123 [label="gini = 0.0\nsamples = 1\nvalue = [1, 0, 0]\nclass = 0", fillcolor="#e58139"] ;
121 -> 123 ;
124 [label="gini = 0.0\nsamples = 38\nvalue = [0, 0, 38]\nclass = 2", fillcolor="#8139e5"] ;
120 -> 124 ;
125 [label="x均值 <= 6242405.75\ngini = 0.664\nsamples = 41\nvalue = [12, 14, 15]\nclass = 2", fillcolor="#faf8fe"] ;
117 -> 125 ;
126 [label="y最大值 <= 5226088.5\ngini = 0.589\nsamples = 28\nvalue = [12, 13, 3]\nclass = 1", fillcolor="#f3fdf7"] ;
125 -> 126 ;
127 [label="x均值 <= 6236545.25\ngini = 0.46\nsamples = 19\nvalue = [5, 13, 1]\nclass = 1", fillcolor="#8ef0b7"] ;
126 -> 127 ;
128 [label="x方差 <= 32.831\ngini = 0.32\nsamples = 5\nvalue = [4, 0, 1]\nclass = 0", fillcolor="#eca06a"] ;
127 -> 128 ;
129 [label="gini = 0.0\nsamples = 1\nvalue = [0, 0, 1]\nclass = 2", fillcolor="#8139e5"] ;
128 -> 129 ;
130 [label="gini = 0.0\nsamples = 4\nvalue = [4, 0, 0]\nclass = 0", fillcolor="#e58139"] ;
128 -> 130 ;
131 [label="y方差 <= 4.222\ngini = 0.133\nsamples = 14\nvalue = [1, 13, 0]\nclass = 1", fillcolor="#48e78b"] ;
127 -> 131 ;
132 [label="gini = 0.0\nsamples = 1\nvalue = [1, 0, 0]\nclass = 0", fillcolor="#e58139"] ;
131 -> 132 ;
133 [label="gini = 0.0\nsamples = 13\nvalue = [0, 13, 0]\nclass = 1", fillcolor="#39e581"] ;
131 -> 133 ;
134 [label="x最小值 <= 6236647.75\ngini = 0.346\nsamples = 9\nvalue = [7, 0, 2]\nclass = 0", fillcolor="#eca572"] ;
126 -> 134 ;
135 [label="y方差 <= 351.97\ngini = 0.444\nsamples = 3\nvalue = [1, 0, 2]\nclass = 2", fillcolor="#c09cf2"] ;
134 -> 135 ;
136 [label="gini = 0.0\nsamples = 1\nvalue = [1, 0, 0]\nclass = 0", fillcolor="#e58139"] ;
135 -> 136 ;
137 [label="gini = 0.0\nsamples = 2\nvalue = [0, 0, 2]\nclass = 2", fillcolor="#8139e5"] ;
135 -> 137 ;
138 [label="gini = 0.0\nsamples = 6\nvalue = [6, 0, 0]\nclass = 0", fillcolor="#e58139"] ;
134 -> 138 ;
139 [label="x最大值 <= 6245624.25\ngini = 0.142\nsamples = 13\nvalue = [0, 1, 12]\nclass = 2", fillcolor="#8c49e7"] ;
125 -> 139 ;
140 [label="gini = 0.0\nsamples = 12\nvalue = [0, 0, 12]\nclass = 2", fillcolor="#8139e5"] ;
139 -> 140 ;
141 [label="gini = 0.0\nsamples = 1\nvalue = [0, 1, 0]\nclass = 1", fillcolor="#39e581"] ;
139 -> 141 ;
142 [label="方向均值 <= 93.288\ngini = 0.169\nsamples = 198\nvalue = [180, 10, 8]\nclass = 0", fillcolor="#e78d4c"] ;
48 -> 142 ;
143 [label="x方差 <= 2.521\ngini = 0.047\nsamples = 124\nvalue = [121, 3, 0]\nclass = 0", fillcolor="#e6843e"] ;
142 -> 143 ;
144 [label="gini = 0.0\nsamples = 1\nvalue = [0, 1, 0]\nclass = 1", fillcolor="#39e581"] ;
143 -> 144 ;
145 [label="x均值 <= 6246919.75\ngini = 0.032\nsamples = 123\nvalue = [121, 2, 0]\nclass = 0", fillcolor="#e5833c"] ;
143 -> 145 ;
146 [label="gini = 0.0\nsamples = 109\nvalue = [109, 0, 0]\nclass = 0", fillcolor="#e58139"] ;
145 -> 146 ;
147 [label="速度最大值 <= 7.905\ngini = 0.245\nsamples = 14\nvalue = [12, 2, 0]\nclass = 0", fillcolor="#e9965a"] ;
145 -> 147 ;
148 [label="gini = 0.0\nsamples = 2\nvalue = [0, 2, 0]\nclass = 1", fillcolor="#39e581"] ;
147 -> 148 ;
149 [label="gini = 0.0\nsamples = 12\nvalue = [12, 0, 0]\nclass = 0", fillcolor="#e58139"] ;
147 -> 149 ;
150 [label="y均值 <= 5240871.0\ngini = 0.344\nsamples = 74\nvalue = [59, 7, 8]\nclass = 0", fillcolor="#eb9e66"] ;
142 -> 150 ;
151 [label="y均值 <= 5240823.5\ngini = 0.539\nsamples = 16\nvalue = [9, 1, 6]\nclass = 0", fillcolor="#f7d9c4"] ;
150 -> 151 ;
152 [label="x方差 <= 8.451\ngini = 0.18\nsamples = 10\nvalue = [9, 1, 0]\nclass = 0", fillcolor="#e88f4f"] ;
151 -> 152 ;
153 [label="gini = 0.0\nsamples = 1\nvalue = [0, 1, 0]\nclass = 1", fillcolor="#39e581"] ;
152 -> 153 ;
154 [label="gini = 0.0\nsamples = 9\nvalue = [9, 0, 0]\nclass = 0", fillcolor="#e58139"] ;
152 -> 154 ;
155 [label="gini = 0.0\nsamples = 6\nvalue = [0, 0, 6]\nclass = 2", fillcolor="#8139e5"] ;
151 -> 155 ;
156 [label="x均值 <= 6250992.75\ngini = 0.245\nsamples = 58\nvalue = [50, 6, 2]\nclass = 0", fillcolor="#e99457"] ;
150 -> 156 ;
157 [label="x最小值 <= 6246627.0\ngini = 0.191\nsamples = 56\nvalue = [50, 6, 0]\nclass = 0", fillcolor="#e89051"] ;
156 -> 157 ;
158 [label="速度最大值 <= 25.23\ngini = 0.14\nsamples = 53\nvalue = [49, 4, 0]\nclass = 0", fillcolor="#e78b49"] ;
157 -> 158 ;
159 [label="方向均值 <= 100.747\ngini = 0.109\nsamples = 52\nvalue = [49, 3, 0]\nclass = 0", fillcolor="#e78945"] ;
158 -> 159 ;
160 [label="x方差 <= 443.923\ngini = 0.32\nsamples = 15\nvalue = [12, 3, 0]\nclass = 0", fillcolor="#eca06a"] ;
159 -> 160 ;
161 [label="x最小值 <= 6246526.0\ngini = 0.142\nsamples = 13\nvalue = [12, 1, 0]\nclass = 0", fillcolor="#e78c49"] ;
160 -> 161 ;
162 [label="gini = 0.0\nsamples = 12\nvalue = [12, 0, 0]\nclass = 0", fillcolor="#e58139"] ;
161 -> 162 ;
163 [label="gini = 0.0\nsamples = 1\nvalue = [0, 1, 0]\nclass = 1", fillcolor="#39e581"] ;
161 -> 163 ;
164 [label="gini = 0.0\nsamples = 2\nvalue = [0, 2, 0]\nclass = 1", fillcolor="#39e581"] ;
160 -> 164 ;
165 [label="gini = 0.0\nsamples = 37\nvalue = [37, 0, 0]\nclass = 0", fillcolor="#e58139"] ;
159 -> 165 ;
166 [label="gini = 0.0\nsamples = 1\nvalue = [0, 1, 0]\nclass = 1", fillcolor="#39e581"] ;
158 -> 166 ;
167 [label="x最小值 <= 6247080.25\ngini = 0.444\nsamples = 3\nvalue = [1, 2, 0]\nclass = 1", fillcolor="#9cf2c0"] ;
157 -> 167 ;
168 [label="gini = 0.0\nsamples = 2\nvalue = [0, 2, 0]\nclass = 1", fillcolor="#39e581"] ;
167 -> 168 ;
169 [label="gini = 0.0\nsamples = 1\nvalue = [1, 0, 0]\nclass = 0", fillcolor="#e58139"] ;
167 -> 169 ;
170 [label="gini = 0.0\nsamples = 2\nvalue = [0, 0, 2]\nclass = 2", fillcolor="#8139e5"] ;
156 -> 170 ;
171 [label="x均值 <= 6264419.0\ngini = 0.432\nsamples = 69\nvalue = [13, 6, 50]\nclass = 2", fillcolor="#ac7cee"] ;
47 -> 171 ;
172 [label="y最小值 <= 5242263.5\ngini = 0.051\nsamples = 38\nvalue = [1, 0, 37]\nclass = 2", fillcolor="#843ee6"] ;
171 -> 172 ;
173 [label="gini = 0.0\nsamples = 1\nvalue = [1, 0, 0]\nclass = 0", fillcolor="#e58139"] ;
172 -> 173 ;
174 [label="gini = 0.0\nsamples = 37\nvalue = [0, 0, 37]\nclass = 2", fillcolor="#8139e5"] ;
172 -> 174 ;
175 [label="y最大值 <= 5256376.5\ngini = 0.637\nsamples = 31\nvalue = [12, 6, 13]\nclass = 2", fillcolor="#f8f5fe"] ;
171 -> 175 ;
176 [label="y均值 <= 5251470.75\ngini = 0.415\nsamples = 17\nvalue = [12, 5, 0]\nclass = 0", fillcolor="#f0b58b"] ;
175 -> 176 ;
177 [label="y最小值 <= 5240884.0\ngini = 0.278\nsamples = 6\nvalue = [1, 5, 0]\nclass = 1", fillcolor="#61ea9a"] ;
176 -> 177 ;
178 [label="gini = 0.0\nsamples = 1\nvalue = [1, 0, 0]\nclass = 0", fillcolor="#e58139"] ;
177 -> 178 ;
179 [label="gini = 0.0\nsamples = 5\nvalue = [0, 5, 0]\nclass = 1", fillcolor="#39e581"] ;
177 -> 179 ;
180 [label="gini = 0.0\nsamples = 11\nvalue = [11, 0, 0]\nclass = 0", fillcolor="#e58139"] ;
176 -> 180 ;
181 [label="y方差 <= 2070.397\ngini = 0.133\nsamples = 14\nvalue = [0, 1, 13]\nclass = 2", fillcolor="#8b48e7"] ;
175 -> 181 ;
182 [label="gini = 0.0\nsamples = 13\nvalue = [0, 0, 13]\nclass = 2", fillcolor="#8139e5"] ;
181 -> 182 ;
183 [label="gini = 0.0\nsamples = 1\nvalue = [0, 1, 0]\nclass = 1", fillcolor="#39e581"] ;
181 -> 183 ;
184 [label="速度均值 <= 6.69\ngini = 0.225\nsamples = 62\nvalue = [8, 0, 54]\nclass = 2", fillcolor="#9456e9"] ;
46 -> 184 ;
185 [label="速度最大值 <= 9.9\ngini = 0.155\nsamples = 59\nvalue = [5, 0, 54]\nclass = 2", fillcolor="#8d4be7"] ;
184 -> 185 ;
186 [label="x最小值 <= 6352897.5\ngini = 0.04\nsamples = 49\nvalue = [1, 0, 48]\nclass = 2", fillcolor="#843de6"] ;
185 -> 186 ;
187 [label="gini = 0.0\nsamples = 48\nvalue = [0, 0, 48]\nclass = 2", fillcolor="#8139e5"] ;
186 -> 187 ;
188 [label="gini = 0.0\nsamples = 1\nvalue = [1, 0, 0]\nclass = 0", fillcolor="#e58139"] ;
186 -> 188 ;
189 [label="方向均值 <= 144.269\ngini = 0.48\nsamples = 10\nvalue = [4, 0, 6]\nclass = 2", fillcolor="#d5bdf6"] ;
185 -> 189 ;
190 [label="gini = 0.0\nsamples = 5\nvalue = [0, 0, 5]\nclass = 2", fillcolor="#8139e5"] ;
189 -> 190 ;
191 [label="方向最大值 <= 356.0\ngini = 0.32\nsamples = 5\nvalue = [4, 0, 1]\nclass = 0", fillcolor="#eca06a"] ;
189 -> 191 ;
192 [label="gini = 0.0\nsamples = 1\nvalue = [0, 0, 1]\nclass = 2", fillcolor="#8139e5"] ;
191 -> 192 ;
193 [label="gini = 0.0\nsamples = 4\nvalue = [4, 0, 0]\nclass = 0", fillcolor="#e58139"] ;
191 -> 193 ;
194 [label="gini = 0.0\nsamples = 3\nvalue = [3, 0, 0]\nclass = 0", fillcolor="#e58139"] ;
184 -> 194 ;
195 [label="速度均值 <= 2.002\ngini = 0.154\nsamples = 2446\nvalue = [2245, 96, 105]\nclass = 0", fillcolor="#e78c4a"] ;
1 -> 195 ;
196 [label="y最大值 <= 5116918.5\ngini = 0.303\nsamples = 877\nvalue = [724, 62, 91]\nclass = 0", fillcolor="#ea9a60"] ;
195 -> 196 ;
197 [label="y最大值 <= 5065520.5\ngini = 0.076\nsamples = 305\nvalue = [293, 6, 6]\nclass = 0", fillcolor="#e68641"] ;
196 -> 197 ;
198 [label="y最大值 <= 4837663.25\ngini = 0.465\nsamples = 40\nvalue = [28, 6, 6]\nclass = 0", fillcolor="#eead7f"] ;
197 -> 198 ;
199 [label="x方差 <= 3834.312\ngini = 0.069\nsamples = 28\nvalue = [27, 1, 0]\nclass = 0", fillcolor="#e68640"] ;
198 -> 199 ;
200 [label="gini = 0.0\nsamples = 1\nvalue = [0, 1, 0]\nclass = 1", fillcolor="#39e581"] ;
199 -> 200 ;
201 [label="gini = 0.0\nsamples = 27\nvalue = [27, 0, 0]\nclass = 0", fillcolor="#e58139"] ;
199 -> 201 ;
202 [label="y最小值 <= 4997832.25\ngini = 0.569\nsamples = 12\nvalue = [1, 5, 6]\nclass = 2", fillcolor="#ede3fb"] ;
198 -> 202 ;
203 [label="方向最大值 <= 359.0\ngini = 0.245\nsamples = 7\nvalue = [1, 0, 6]\nclass = 2", fillcolor="#965ae9"] ;
202 -> 203 ;
204 [label="gini = 0.0\nsamples = 6\nvalue = [0, 0, 6]\nclass = 2", fillcolor="#8139e5"] ;
203 -> 204 ;
205 [label="gini = 0.0\nsamples = 1\nvalue = [1, 0, 0]\nclass = 0", fillcolor="#e58139"] ;
203 -> 205 ;
206 [label="gini = 0.0\nsamples = 5\nvalue = [0, 5, 0]\nclass = 1", fillcolor="#39e581"] ;
202 -> 206 ;
207 [label="gini = 0.0\nsamples = 265\nvalue = [265, 0, 0]\nclass = 0", fillcolor="#e58139"] ;
197 -> 207 ;
208 [label="y最大值 <= 5121348.25\ngini = 0.401\nsamples = 572\nvalue = [431, 56, 85]\nclass = 0", fillcolor="#eda572"] ;
196 -> 208 ;
209 [label="y最小值 <= 5106519.0\ngini = 0.526\nsamples = 21\nvalue = [2, 13, 6]\nclass = 1", fillcolor="#a3f3c4"] ;
208 -> 209 ;
210 [label="速度方差 <= 1.678\ngini = 0.231\nsamples = 15\nvalue = [2, 13, 0]\nclass = 1", fillcolor="#57e994"] ;
209 -> 210 ;
211 [label="x最小值 <= 6088664.5\ngini = 0.444\nsamples = 3\nvalue = [2, 1, 0]\nclass = 0", fillcolor="#f2c09c"] ;
210 -> 211 ;
212 [label="gini = 0.0\nsamples = 2\nvalue = [2, 0, 0]\nclass = 0", fillcolor="#e58139"] ;
211 -> 212 ;
213 [label="gini = 0.0\nsamples = 1\nvalue = [0, 1, 0]\nclass = 1", fillcolor="#39e581"] ;
211 -> 213 ;
214 [label="gini = 0.0\nsamples = 12\nvalue = [0, 12, 0]\nclass = 1", fillcolor="#39e581"] ;
210 -> 214 ;
215 [label="gini = 0.0\nsamples = 6\nvalue = [0, 0, 6]\nclass = 2", fillcolor="#8139e5"] ;
209 -> 215 ;
216 [label="方向均值 <= 128.305\ngini = 0.367\nsamples = 551\nvalue = [429, 43, 79]\nclass = 0", fillcolor="#eca26c"] ;
208 -> 216 ;
217 [label="方向均值 <= 56.568\ngini = 0.312\nsamples = 444\nvalue = [364, 41, 39]\nclass = 0", fillcolor="#ea9a60"] ;
216 -> 217 ;
218 [label="y最大值 <= 5131059.0\ngini = 0.558\nsamples = 43\nvalue = [22, 18, 3]\nclass = 0", fillcolor="#fbebdf"] ;
217 -> 218 ;
219 [label="y最小值 <= 5050616.25\ngini = 0.266\nsamples = 19\nvalue = [16, 0, 3]\nclass = 0", fillcolor="#ea995e"] ;
218 -> 219 ;
220 [label="gini = 0.0\nsamples = 1\nvalue = [0, 0, 1]\nclass = 2", fillcolor="#8139e5"] ;
219 -> 220 ;
221 [label="y均值 <= 5129860.25\ngini = 0.198\nsamples = 18\nvalue = [16, 0, 2]\nclass = 0", fillcolor="#e89152"] ;
219 -> 221 ;
222 [label="速度方差 <= 1.247\ngini = 0.111\nsamples = 17\nvalue = [16, 0, 1]\nclass = 0", fillcolor="#e78945"] ;
221 -> 222 ;
223 [label="gini = 0.0\nsamples = 1\nvalue = [0, 0, 1]\nclass = 2", fillcolor="#8139e5"] ;
222 -> 223 ;
224 [label="gini = 0.0\nsamples = 16\nvalue = [16, 0, 0]\nclass = 0", fillcolor="#e58139"] ;
222 -> 224 ;
225 [label="gini = 0.0\nsamples = 1\nvalue = [0, 0, 1]\nclass = 2", fillcolor="#8139e5"] ;
221 -> 225 ;
226 [label="速度最大值 <= 9.63\ngini = 0.375\nsamples = 24\nvalue = [6, 18, 0]\nclass = 1", fillcolor="#7beeab"] ;
218 -> 226 ;
227 [label="gini = 0.0\nsamples = 3\nvalue = [3, 0, 0]\nclass = 0", fillcolor="#e58139"] ;
226 -> 227 ;
228 [label="x方差 <= 13449.483\ngini = 0.245\nsamples = 21\nvalue = [3, 18, 0]\nclass = 1", fillcolor="#5ae996"] ;
226 -> 228 ;
229 [label="gini = 0.0\nsamples = 16\nvalue = [0, 16, 0]\nclass = 1", fillcolor="#39e581"] ;
228 -> 229 ;
230 [label="速度最大值 <= 11.12\ngini = 0.48\nsamples = 5\nvalue = [3, 2, 0]\nclass = 0", fillcolor="#f6d5bd"] ;
228 -> 230 ;
231 [label="gini = 0.0\nsamples = 3\nvalue = [3, 0, 0]\nclass = 0", fillcolor="#e58139"] ;
230 -> 231 ;
232 [label="gini = 0.0\nsamples = 2\nvalue = [0, 2, 0]\nclass = 1", fillcolor="#39e581"] ;
230 -> 232 ;
233 [label="速度方差 <= 1.432\ngini = 0.261\nsamples = 401\nvalue = [342, 23, 36]\nclass = 0", fillcolor="#e99559"] ;
217 -> 233 ;
234 [label="方向最大值 <= 357.5\ngini = 0.473\nsamples = 13\nvalue = [5, 0, 8]\nclass = 2", fillcolor="#d0b5f5"] ;
233 -> 234 ;
235 [label="gini = 0.0\nsamples = 3\nvalue = [3, 0, 0]\nclass = 0", fillcolor="#e58139"] ;
234 -> 235 ;
236 [label="x方差 <= 1817.136\ngini = 0.32\nsamples = 10\nvalue = [2, 0, 8]\nclass = 2", fillcolor="#a06aec"] ;
234 -> 236 ;
237 [label="gini = 0.0\nsamples = 1\nvalue = [1, 0, 0]\nclass = 0", fillcolor="#e58139"] ;
236 -> 237 ;
238 [label="x最大值 <= 6163783.0\ngini = 0.198\nsamples = 9\nvalue = [1, 0, 8]\nclass = 2", fillcolor="#9152e8"] ;
236 -> 238 ;
239 [label="gini = 0.0\nsamples = 1\nvalue = [1, 0, 0]\nclass = 0", fillcolor="#e58139"] ;
238 -> 239 ;
240 [label="gini = 0.0\nsamples = 8\nvalue = [0, 0, 8]\nclass = 2", fillcolor="#8139e5"] ;
238 -> 240 ;
241 [label="x最大值 <= 6448544.0\ngini = 0.237\nsamples = 388\nvalue = [337, 23, 28]\nclass = 0", fillcolor="#e99355"] ;
233 -> 241 ;
242 [label="x最大值 <= 6208266.75\ngini = 0.222\nsamples = 384\nvalue = [337, 19, 28]\nclass = 0", fillcolor="#e89253"] ;
241 -> 242 ;
243 [label="x最小值 <= 6160786.75\ngini = 0.402\nsamples = 72\nvalue = [53, 2, 17]\nclass = 0", fillcolor="#eead7d"] ;
242 -> 243 ;
244 [label="y方差 <= 52366.412\ngini = 0.148\nsamples = 51\nvalue = [47, 2, 2]\nclass = 0", fillcolor="#e78b49"] ;
243 -> 244 ;
245 [label="方向均值 <= 125.243\ngini = 0.041\nsamples = 48\nvalue = [47, 0, 1]\nclass = 0", fillcolor="#e6843d"] ;
244 -> 245 ;
246 [label="gini = 0.0\nsamples = 47\nvalue = [47, 0, 0]\nclass = 0", fillcolor="#e58139"] ;
245 -> 246 ;
247 [label="gini = 0.0\nsamples = 1\nvalue = [0, 0, 1]\nclass = 2", fillcolor="#8139e5"] ;
245 -> 247 ;
248 [label="y方差 <= 57740.404\ngini = 0.444\nsamples = 3\nvalue = [0, 2, 1]\nclass = 1", fillcolor="#9cf2c0"] ;
244 -> 248 ;
249 [label="gini = 0.0\nsamples = 1\nvalue = [0, 0, 1]\nclass = 2", fillcolor="#8139e5"] ;
248 -> 249 ;
250 [label="gini = 0.0\nsamples = 2\nvalue = [0, 2, 0]\nclass = 1", fillcolor="#39e581"] ;
248 -> 250 ;
251 [label="x方差 <= 3587.331\ngini = 0.408\nsamples = 21\nvalue = [6, 0, 15]\nclass = 2", fillcolor="#b388ef"] ;
243 -> 251 ;
252 [label="gini = 0.0\nsamples = 4\nvalue = [4, 0, 0]\nclass = 0", fillcolor="#e58139"] ;
251 -> 252 ;
253 [label="方向方差 <= 126.148\ngini = 0.208\nsamples = 17\nvalue = [2, 0, 15]\nclass = 2", fillcolor="#9253e8"] ;
251 -> 253 ;
254 [label="gini = 0.0\nsamples = 15\nvalue = [0, 0, 15]\nclass = 2", fillcolor="#8139e5"] ;
253 -> 254 ;
255 [label="gini = 0.0\nsamples = 2\nvalue = [2, 0, 0]\nclass = 0", fillcolor="#e58139"] ;
253 -> 255 ;
256 [label="x方差 <= 796.325\ngini = 0.167\nsamples = 312\nvalue = [284, 17, 11]\nclass = 0", fillcolor="#e78d4c"] ;
242 -> 256 ;
257 [label="x最大值 <= 6244369.25\ngini = 0.444\nsamples = 3\nvalue = [1, 2, 0]\nclass = 1", fillcolor="#9cf2c0"] ;
256 -> 257 ;
258 [label="gini = 0.0\nsamples = 2\nvalue = [0, 2, 0]\nclass = 1", fillcolor="#39e581"] ;
257 -> 258 ;
259 [label="gini = 0.0\nsamples = 1\nvalue = [1, 0, 0]\nclass = 0", fillcolor="#e58139"] ;
257 -> 259 ;
260 [label="y方差 <= 34665.568\ngini = 0.158\nsamples = 309\nvalue = [283, 15, 11]\nclass = 0", fillcolor="#e78c4b"] ;
256 -> 260 ;
261 [label="x最小值 <= 6246460.75\ngini = 0.128\nsamples = 282\nvalue = [263, 8, 11]\nclass = 0", fillcolor="#e78a47"] ;
260 -> 261 ;
262 [label="y最大值 <= 5184561.25\ngini = 0.08\nsamples = 242\nvalue = [232, 2, 8]\nclass = 0", fillcolor="#e68641"] ;
261 -> 262 ;
263 [label="y最大值 <= 5159788.25\ngini = 0.398\nsamples = 16\nvalue = [12, 1, 3]\nclass = 0", fillcolor="#eda876"] ;
262 -> 263 ;
264 [label="方向最大值 <= 359.5\ngini = 0.142\nsamples = 13\nvalue = [12, 1, 0]\nclass = 0", fillcolor="#e78c49"] ;
263 -> 264 ;
265 [label="gini = 0.0\nsamples = 12\nvalue = [12, 0, 0]\nclass = 0", fillcolor="#e58139"] ;
264 -> 265 ;
266 [label="gini = 0.0\nsamples = 1\nvalue = [0, 1, 0]\nclass = 1", fillcolor="#39e581"] ;
264 -> 266 ;
267 [label="gini = 0.0\nsamples = 3\nvalue = [0, 0, 3]\nclass = 2", fillcolor="#8139e5"] ;
263 -> 267 ;
268 [label="y方差 <= 3951.203\ngini = 0.052\nsamples = 226\nvalue = [220, 1, 5]\nclass = 0", fillcolor="#e6843e"] ;
262 -> 268 ;
269 [label="速度最大值 <= 8.445\ngini = 0.444\nsamples = 6\nvalue = [4, 0, 2]\nclass = 0", fillcolor="#f2c09c"] ;
268 -> 269 ;
270 [label="gini = 0.0\nsamples = 2\nvalue = [0, 0, 2]\nclass = 2", fillcolor="#8139e5"] ;
269 -> 270 ;
271 [label="gini = 0.0\nsamples = 4\nvalue = [4, 0, 0]\nclass = 0", fillcolor="#e58139"] ;
269 -> 271 ;
272 [label="x最大值 <= 6247448.75\ngini = 0.036\nsamples = 220\nvalue = [216, 1, 3]\nclass = 0", fillcolor="#e5833d"] ;
268 -> 272 ;
273 [label="x最小值 <= 6200724.25\ngini = 0.097\nsamples = 59\nvalue = [56, 0, 3]\nclass = 0", fillcolor="#e68844"] ;
272 -> 273 ;
274 [label="y最小值 <= 5178637.5\ngini = 0.034\nsamples = 57\nvalue = [56, 0, 1]\nclass = 0", fillcolor="#e5833d"] ;
273 -> 274 ;
275 [label="gini = 0.0\nsamples = 56\nvalue = [56, 0, 0]\nclass = 0", fillcolor="#e58139"] ;
274 -> 275 ;
276 [label="gini = 0.0\nsamples = 1\nvalue = [0, 0, 1]\nclass = 2", fillcolor="#8139e5"] ;
274 -> 276 ;
277 [label="gini = 0.0\nsamples = 2\nvalue = [0, 0, 2]\nclass = 2", fillcolor="#8139e5"] ;
273 -> 277 ;
278 [label="速度最大值 <= 9.825\ngini = 0.012\nsamples = 161\nvalue = [160, 1, 0]\nclass = 0", fillcolor="#e5823a"] ;
272 -> 278 ;
279 [label="速度方差 <= 2.614\ngini = 0.117\nsamples = 16\nvalue = [15, 1, 0]\nclass = 0", fillcolor="#e78946"] ;
278 -> 279 ;
280 [label="gini = 0.0\nsamples = 15\nvalue = [15, 0, 0]\nclass = 0", fillcolor="#e58139"] ;
279 -> 280 ;
281 [label="gini = 0.0\nsamples = 1\nvalue = [0, 1, 0]\nclass = 1", fillcolor="#39e581"] ;
279 -> 281 ;
282 [label="gini = 0.0\nsamples = 145\nvalue = [145, 0, 0]\nclass = 0", fillcolor="#e58139"] ;
278 -> 282 ;
283 [label="y最小值 <= 5234207.5\ngini = 0.371\nsamples = 40\nvalue = [31, 6, 3]\nclass = 0", fillcolor="#eca26d"] ;
261 -> 283 ;
284 [label="方向均值 <= 89.579\ngini = 0.124\nsamples = 30\nvalue = [28, 2, 0]\nclass = 0", fillcolor="#e78a47"] ;
283 -> 284 ;
285 [label="y方差 <= 11148.397\ngini = 0.444\nsamples = 6\nvalue = [4, 2, 0]\nclass = 0", fillcolor="#f2c09c"] ;
284 -> 285 ;
286 [label="gini = 0.0\nsamples = 4\nvalue = [4, 0, 0]\nclass = 0", fillcolor="#e58139"] ;
285 -> 286 ;
287 [label="gini = 0.0\nsamples = 2\nvalue = [0, 2, 0]\nclass = 1", fillcolor="#39e581"] ;
285 -> 287 ;
288 [label="gini = 0.0\nsamples = 24\nvalue = [24, 0, 0]\nclass = 0", fillcolor="#e58139"] ;
284 -> 288 ;
289 [label="x最大值 <= 6309601.75\ngini = 0.66\nsamples = 10\nvalue = [3, 4, 3]\nclass = 1", fillcolor="#e3fbed"] ;
283 -> 289 ;
290 [label="gini = 0.0\nsamples = 3\nvalue = [0, 0, 3]\nclass = 2", fillcolor="#8139e5"] ;
289 -> 290 ;
291 [label="x均值 <= 6276673.0\ngini = 0.49\nsamples = 7\nvalue = [3, 4, 0]\nclass = 1", fillcolor="#cef8e0"] ;
289 -> 291 ;
292 [label="速度方差 <= 1.774\ngini = 0.32\nsamples = 5\nvalue = [1, 4, 0]\nclass = 1", fillcolor="#6aeca0"] ;
291 -> 292 ;
293 [label="gini = 0.0\nsamples = 1\nvalue = [1, 0, 0]\nclass = 0", fillcolor="#e58139"] ;
292 -> 293 ;
294 [label="gini = 0.0\nsamples = 4\nvalue = [0, 4, 0]\nclass = 1", fillcolor="#39e581"] ;
292 -> 294 ;
295 [label="gini = 0.0\nsamples = 2\nvalue = [2, 0, 0]\nclass = 0", fillcolor="#e58139"] ;
291 -> 295 ;
296 [label="速度均值 <= 1.332\ngini = 0.384\nsamples = 27\nvalue = [20, 7, 0]\nclass = 0", fillcolor="#eead7e"] ;
260 -> 296 ;
297 [label="gini = 0.0\nsamples = 3\nvalue = [0, 3, 0]\nclass = 1", fillcolor="#39e581"] ;
296 -> 297 ;
298 [label="y均值 <= 5190492.5\ngini = 0.278\nsamples = 24\nvalue = [20, 4, 0]\nclass = 0", fillcolor="#ea9a61"] ;
296 -> 298 ;
299 [label="y均值 <= 5135680.0\ngini = 0.375\nsamples = 4\nvalue = [1, 3, 0]\nclass = 1", fillcolor="#7beeab"] ;
298 -> 299 ;
300 [label="gini = 0.0\nsamples = 1\nvalue = [1, 0, 0]\nclass = 0", fillcolor="#e58139"] ;
299 -> 300 ;
301 [label="gini = 0.0\nsamples = 3\nvalue = [0, 3, 0]\nclass = 1", fillcolor="#39e581"] ;
299 -> 301 ;
302 [label="y最大值 <= 5233544.0\ngini = 0.095\nsamples = 20\nvalue = [19, 1, 0]\nclass = 0", fillcolor="#e68843"] ;
298 -> 302 ;
303 [label="gini = 0.0\nsamples = 1\nvalue = [0, 1, 0]\nclass = 1", fillcolor="#39e581"] ;
302 -> 303 ;
304 [label="gini = 0.0\nsamples = 19\nvalue = [19, 0, 0]\nclass = 0", fillcolor="#e58139"] ;
302 -> 304 ;
305 [label="gini = 0.0\nsamples = 4\nvalue = [0, 4, 0]\nclass = 1", fillcolor="#39e581"] ;
241 -> 305 ;
306 [label="y方差 <= 13048.477\ngini = 0.491\nsamples = 107\nvalue = [65, 2, 40]\nclass = 0", fillcolor="#f5d0b5"] ;
216 -> 306 ;
307 [label="方向方差 <= 117.84\ngini = 0.5\nsamples = 75\nvalue = [37, 0, 38]\nclass = 2", fillcolor="#fcfafe"] ;
306 -> 307 ;
308 [label="x最大值 <= 6233605.75\ngini = 0.375\nsamples = 36\nvalue = [9, 0, 27]\nclass = 2", fillcolor="#ab7bee"] ;
307 -> 308 ;
309 [label="gini = 0.0\nsamples = 14\nvalue = [0, 0, 14]\nclass = 2", fillcolor="#8139e5"] ;
308 -> 309 ;
310 [label="方向均值 <= 147.297\ngini = 0.483\nsamples = 22\nvalue = [9, 0, 13]\nclass = 2", fillcolor="#d8c2f7"] ;
308 -> 310 ;
311 [label="y均值 <= 5177550.0\ngini = 0.375\nsamples = 12\nvalue = [9, 0, 3]\nclass = 0", fillcolor="#eeab7b"] ;
310 -> 311 ;
312 [label="gini = 0.0\nsamples = 2\nvalue = [0, 0, 2]\nclass = 2", fillcolor="#8139e5"] ;
311 -> 312 ;
313 [label="方向方差 <= 115.987\ngini = 0.18\nsamples = 10\nvalue = [9, 0, 1]\nclass = 0", fillcolor="#e88f4f"] ;
311 -> 313 ;
314 [label="gini = 0.0\nsamples = 9\nvalue = [9, 0, 0]\nclass = 0", fillcolor="#e58139"] ;
313 -> 314 ;
315 [label="gini = 0.0\nsamples = 1\nvalue = [0, 0, 1]\nclass = 2", fillcolor="#8139e5"] ;
313 -> 315 ;
316 [label="gini = 0.0\nsamples = 10\nvalue = [0, 0, 10]\nclass = 2", fillcolor="#8139e5"] ;
310 -> 316 ;
317 [label="x最大值 <= 6205875.25\ngini = 0.405\nsamples = 39\nvalue = [28, 0, 11]\nclass = 0", fillcolor="#efb287"] ;
307 -> 317 ;
318 [label="x最小值 <= 6158814.25\ngini = 0.486\nsamples = 12\nvalue = [5, 0, 7]\nclass = 2", fillcolor="#dbc6f8"] ;
317 -> 318 ;
319 [label="gini = 0.0\nsamples = 4\nvalue = [4, 0, 0]\nclass = 0", fillcolor="#e58139"] ;
318 -> 319 ;
320 [label="x方差 <= 3888.369\ngini = 0.219\nsamples = 8\nvalue = [1, 0, 7]\nclass = 2", fillcolor="#9355e9"] ;
318 -> 320 ;
321 [label="gini = 0.0\nsamples = 1\nvalue = [1, 0, 0]\nclass = 0", fillcolor="#e58139"] ;
320 -> 321 ;
322 [label="gini = 0.0\nsamples = 7\nvalue = [0, 0, 7]\nclass = 2", fillcolor="#8139e5"] ;
320 -> 322 ;
323 [label="y最大值 <= 5255585.5\ngini = 0.252\nsamples = 27\nvalue = [23, 0, 4]\nclass = 0", fillcolor="#ea975b"] ;
317 -> 323 ;
324 [label="y最大值 <= 5193248.5\ngini = 0.083\nsamples = 23\nvalue = [22, 0, 1]\nclass = 0", fillcolor="#e68742"] ;
323 -> 324 ;
325 [label="gini = 0.0\nsamples = 1\nvalue = [0, 0, 1]\nclass = 2", fillcolor="#8139e5"] ;
324 -> 325 ;
326 [label="gini = 0.0\nsamples = 22\nvalue = [22, 0, 0]\nclass = 0", fillcolor="#e58139"] ;
324 -> 326 ;
327 [label="速度方差 <= 2.6\ngini = 0.375\nsamples = 4\nvalue = [1, 0, 3]\nclass = 2", fillcolor="#ab7bee"] ;
323 -> 327 ;
328 [label="gini = 0.0\nsamples = 3\nvalue = [0, 0, 3]\nclass = 2", fillcolor="#8139e5"] ;
327 -> 328 ;
329 [label="gini = 0.0\nsamples = 1\nvalue = [1, 0, 0]\nclass = 0", fillcolor="#e58139"] ;
327 -> 329 ;
330 [label="y最小值 <= 5064909.0\ngini = 0.227\nsamples = 32\nvalue = [28, 2, 2]\nclass = 0", fillcolor="#e89253"] ;
306 -> 330 ;
331 [label="x最小值 <= 5753747.5\ngini = 0.444\nsamples = 3\nvalue = [1, 2, 0]\nclass = 1", fillcolor="#9cf2c0"] ;
330 -> 331 ;
332 [label="gini = 0.0\nsamples = 1\nvalue = [1, 0, 0]\nclass = 0", fillcolor="#e58139"] ;
331 -> 332 ;
333 [label="gini = 0.0\nsamples = 2\nvalue = [0, 2, 0]\nclass = 1", fillcolor="#39e581"] ;
331 -> 333 ;
334 [label="速度均值 <= 0.545\ngini = 0.128\nsamples = 29\nvalue = [27, 0, 2]\nclass = 0", fillcolor="#e78a48"] ;
330 -> 334 ;
335 [label="gini = 0.0\nsamples = 1\nvalue = [0, 0, 1]\nclass = 2", fillcolor="#8139e5"] ;
334 -> 335 ;
336 [label="y最大值 <= 5184452.0\ngini = 0.069\nsamples = 28\nvalue = [27, 0, 1]\nclass = 0", fillcolor="#e68640"] ;
334 -> 336 ;
337 [label="方向均值 <= 130.71\ngini = 0.5\nsamples = 2\nvalue = [1, 0, 1]\nclass = 0", fillcolor="#ffffff"] ;
336 -> 337 ;
338 [label="gini = 0.0\nsamples = 1\nvalue = [0, 0, 1]\nclass = 2", fillcolor="#8139e5"] ;
337 -> 338 ;
339 [label="gini = 0.0\nsamples = 1\nvalue = [1, 0, 0]\nclass = 0", fillcolor="#e58139"] ;
337 -> 339 ;
340 [label="gini = 0.0\nsamples = 26\nvalue = [26, 0, 0]\nclass = 0", fillcolor="#e58139"] ;
336 -> 340 ;
341 [label="速度方差 <= 3.457\ngini = 0.06\nsamples = 1569\nvalue = [1521, 34, 14]\nclass = 0", fillcolor="#e6853f"] ;
195 -> 341 ;
342 [label="方向均值 <= 50.754\ngini = 0.032\nsamples = 1488\nvalue = [1464, 10, 14]\nclass = 0", fillcolor="#e5833c"] ;
341 -> 342 ;
343 [label="gini = 0.0\nsamples = 1\nvalue = [0, 1, 0]\nclass = 1", fillcolor="#39e581"] ;
342 -> 343 ;
344 [label="y最小值 <= 5249103.0\ngini = 0.031\nsamples = 1487\nvalue = [1464, 9, 14]\nclass = 0", fillcolor="#e5833c"] ;
342 -> 344 ;
345 [label="y最小值 <= 4519341.75\ngini = 0.029\nsamples = 1486\nvalue = [1464, 9, 13]\nclass = 0", fillcolor="#e5833c"] ;
344 -> 345 ;
346 [label="x方差 <= 114157.023\ngini = 0.5\nsamples = 2\nvalue = [1, 1, 0]\nclass = 0", fillcolor="#ffffff"] ;
345 -> 346 ;
347 [label="gini = 0.0\nsamples = 1\nvalue = [0, 1, 0]\nclass = 1", fillcolor="#39e581"] ;
346 -> 347 ;
348 [label="gini = 0.0\nsamples = 1\nvalue = [1, 0, 0]\nclass = 0", fillcolor="#e58139"] ;
346 -> 348 ;
349 [label="速度均值 <= 2.394\ngini = 0.028\nsamples = 1484\nvalue = [1463, 8, 13]\nclass = 0", fillcolor="#e5833c"] ;
345 -> 349 ;
350 [label="方向均值 <= 141.12\ngini = 0.105\nsamples = 181\nvalue = [171, 1, 9]\nclass = 0", fillcolor="#e78845"] ;
349 -> 350 ;
351 [label="x最小值 <= 6269684.5\ngini = 0.039\nsamples = 152\nvalue = [149, 1, 2]\nclass = 0", fillcolor="#e6843d"] ;
350 -> 351 ;
352 [label="x方差 <= 5621.906\ngini = 0.026\nsamples = 151\nvalue = [149, 0, 2]\nclass = 0", fillcolor="#e5833c"] ;
351 -> 352 ;
353 [label="gini = 0.0\nsamples = 1\nvalue = [0, 0, 1]\nclass = 2", fillcolor="#8139e5"] ;
352 -> 353 ;
354 [label="x方差 <= 62881.586\ngini = 0.013\nsamples = 150\nvalue = [149, 0, 1]\nclass = 0", fillcolor="#e5823a"] ;
352 -> 354 ;
355 [label="gini = 0.0\nsamples = 148\nvalue = [148, 0, 0]\nclass = 0", fillcolor="#e58139"] ;
354 -> 355 ;
356 [label="x方差 <= 74818.678\ngini = 0.5\nsamples = 2\nvalue = [1, 0, 1]\nclass = 0", fillcolor="#ffffff"] ;
354 -> 356 ;
357 [label="gini = 0.0\nsamples = 1\nvalue = [0, 0, 1]\nclass = 2", fillcolor="#8139e5"] ;
356 -> 357 ;
358 [label="gini = 0.0\nsamples = 1\nvalue = [1, 0, 0]\nclass = 0", fillcolor="#e58139"] ;
356 -> 358 ;
359 [label="gini = 0.0\nsamples = 1\nvalue = [0, 1, 0]\nclass = 1", fillcolor="#39e581"] ;
351 -> 359 ;
360 [label="方向均值 <= 145.425\ngini = 0.366\nsamples = 29\nvalue = [22, 0, 7]\nclass = 0", fillcolor="#eda978"] ;
350 -> 360 ;
361 [label="方向最大值 <= 358.5\ngini = 0.444\nsamples = 6\nvalue = [2, 0, 4]\nclass = 2", fillcolor="#c09cf2"] ;
360 -> 361 ;
362 [label="gini = 0.0\nsamples = 2\nvalue = [2, 0, 0]\nclass = 0", fillcolor="#e58139"] ;
361 -> 362 ;
363 [label="gini = 0.0\nsamples = 4\nvalue = [0, 0, 4]\nclass = 2", fillcolor="#8139e5"] ;
361 -> 363 ;
364 [label="速度最小值 <= 0.135\ngini = 0.227\nsamples = 23\nvalue = [20, 0, 3]\nclass = 0", fillcolor="#e99457"] ;
360 -> 364 ;
365 [label="速度均值 <= 2.388\ngini = 0.165\nsamples = 22\nvalue = [20, 0, 2]\nclass = 0", fillcolor="#e88e4d"] ;
364 -> 365 ;
366 [label="方向均值 <= 174.628\ngini = 0.091\nsamples = 21\nvalue = [20, 0, 1]\nclass = 0", fillcolor="#e68743"] ;
365 -> 366 ;
367 [label="gini = 0.0\nsamples = 18\nvalue = [18, 0, 0]\nclass = 0", fillcolor="#e58139"] ;
366 -> 367 ;
368 [label="方向均值 <= 178.624\ngini = 0.444\nsamples = 3\nvalue = [2, 0, 1]\nclass = 0", fillcolor="#f2c09c"] ;
366 -> 368 ;
369 [label="gini = 0.0\nsamples = 1\nvalue = [0, 0, 1]\nclass = 2", fillcolor="#8139e5"] ;
368 -> 369 ;
370 [label="gini = 0.0\nsamples = 2\nvalue = [2, 0, 0]\nclass = 0", fillcolor="#e58139"] ;
368 -> 370 ;
371 [label="gini = 0.0\nsamples = 1\nvalue = [0, 0, 1]\nclass = 2", fillcolor="#8139e5"] ;
365 -> 371 ;
372 [label="gini = 0.0\nsamples = 1\nvalue = [0, 0, 1]\nclass = 2", fillcolor="#8139e5"] ;
364 -> 372 ;
373 [label="x最小值 <= 6005567.75\ngini = 0.017\nsamples = 1303\nvalue = [1292, 7, 4]\nclass = 0", fillcolor="#e5823b"] ;
349 -> 373 ;
374 [label="x最小值 <= 6005343.25\ngini = 0.051\nsamples = 229\nvalue = [223, 6, 0]\nclass = 0", fillcolor="#e6843e"] ;
373 -> 374 ;
375 [label="x最小值 <= 5998444.75\ngini = 0.043\nsamples = 228\nvalue = [223, 5, 0]\nclass = 0", fillcolor="#e6843d"] ;
374 -> 375 ;
376 [label="速度方差 <= 3.354\ngini = 0.019\nsamples = 212\nvalue = [210, 2, 0]\nclass = 0", fillcolor="#e5823b"] ;
375 -> 376 ;
377 [label="方向均值 <= 104.571\ngini = 0.01\nsamples = 207\nvalue = [206, 1, 0]\nclass = 0", fillcolor="#e5823a"] ;
376 -> 377 ;
378 [label="方向均值 <= 102.725\ngini = 0.278\nsamples = 6\nvalue = [5, 1, 0]\nclass = 0", fillcolor="#ea9a61"] ;
377 -> 378 ;
379 [label="gini = 0.0\nsamples = 5\nvalue = [5, 0, 0]\nclass = 0", fillcolor="#e58139"] ;
378 -> 379 ;
380 [label="gini = 0.0\nsamples = 1\nvalue = [0, 1, 0]\nclass = 1", fillcolor="#39e581"] ;
378 -> 380 ;
381 [label="gini = 0.0\nsamples = 201\nvalue = [201, 0, 0]\nclass = 0", fillcolor="#e58139"] ;
377 -> 381 ;
382 [label="y均值 <= 4783250.75\ngini = 0.32\nsamples = 5\nvalue = [4, 1, 0]\nclass = 0", fillcolor="#eca06a"] ;
376 -> 382 ;
383 [label="gini = 0.0\nsamples = 1\nvalue = [0, 1, 0]\nclass = 1", fillcolor="#39e581"] ;
382 -> 383 ;
384 [label="gini = 0.0\nsamples = 4\nvalue = [4, 0, 0]\nclass = 0", fillcolor="#e58139"] ;
382 -> 384 ;
385 [label="y最小值 <= 4981344.25\ngini = 0.305\nsamples = 16\nvalue = [13, 3, 0]\nclass = 0", fillcolor="#eb9e67"] ;
375 -> 385 ;
386 [label="gini = 0.0\nsamples = 3\nvalue = [0, 3, 0]\nclass = 1", fillcolor="#39e581"] ;
385 -> 386 ;
387 [label="gini = 0.0\nsamples = 13\nvalue = [13, 0, 0]\nclass = 0", fillcolor="#e58139"] ;
385 -> 387 ;
388 [label="gini = 0.0\nsamples = 1\nvalue = [0, 1, 0]\nclass = 1", fillcolor="#39e581"] ;
374 -> 388 ;
389 [label="x方差 <= 3840.007\ngini = 0.009\nsamples = 1074\nvalue = [1069, 1, 4]\nclass = 0", fillcolor="#e5823a"] ;
373 -> 389 ;
390 [label="方向方差 <= 98.05\ngini = 0.245\nsamples = 7\nvalue = [6, 0, 1]\nclass = 0", fillcolor="#e9965a"] ;
389 -> 390 ;
391 [label="gini = 0.0\nsamples = 1\nvalue = [0, 0, 1]\nclass = 2", fillcolor="#8139e5"] ;
390 -> 391 ;
392 [label="gini = 0.0\nsamples = 6\nvalue = [6, 0, 0]\nclass = 0", fillcolor="#e58139"] ;
390 -> 392 ;
393 [label="速度最大值 <= 11.28\ngini = 0.007\nsamples = 1067\nvalue = [1063, 1, 3]\nclass = 0", fillcolor="#e5813a"] ;
389 -> 393 ;
394 [label="gini = 0.0\nsamples = 967\nvalue = [967, 0, 0]\nclass = 0", fillcolor="#e58139"] ;
393 -> 394 ;
395 [label="方向最大值 <= 343.0\ngini = 0.077\nsamples = 100\nvalue = [96, 1, 3]\nclass = 0", fillcolor="#e68641"] ;
393 -> 395 ;
396 [label="方向方差 <= 101.572\ngini = 0.5\nsamples = 2\nvalue = [1, 1, 0]\nclass = 0", fillcolor="#ffffff"] ;
395 -> 396 ;
397 [label="gini = 0.0\nsamples = 1\nvalue = [0, 1, 0]\nclass = 1", fillcolor="#39e581"] ;
396 -> 397 ;
398 [label="gini = 0.0\nsamples = 1\nvalue = [1, 0, 0]\nclass = 0", fillcolor="#e58139"] ;
396 -> 398 ;
399 [label="x方差 <= 6843.558\ngini = 0.059\nsamples = 98\nvalue = [95, 0, 3]\nclass = 0", fillcolor="#e6853f"] ;
395 -> 399 ;
400 [label="y最大值 <= 5214151.0\ngini = 0.444\nsamples = 3\nvalue = [2, 0, 1]\nclass = 0", fillcolor="#f2c09c"] ;
399 -> 400 ;
401 [label="gini = 0.0\nsamples = 2\nvalue = [2, 0, 0]\nclass = 0", fillcolor="#e58139"] ;
400 -> 401 ;
402 [label="gini = 0.0\nsamples = 1\nvalue = [0, 0, 1]\nclass = 2", fillcolor="#8139e5"] ;
400 -> 402 ;
403 [label="方向方差 <= 93.058\ngini = 0.041\nsamples = 95\nvalue = [93, 0, 2]\nclass = 0", fillcolor="#e6843d"] ;
399 -> 403 ;
404 [label="速度最小值 <= 0.055\ngini = 0.375\nsamples = 4\nvalue = [3, 0, 1]\nclass = 0", fillcolor="#eeab7b"] ;
403 -> 404 ;
405 [label="gini = 0.0\nsamples = 1\nvalue = [0, 0, 1]\nclass = 2", fillcolor="#8139e5"] ;
404 -> 405 ;
406 [label="gini = 0.0\nsamples = 3\nvalue = [3, 0, 0]\nclass = 0", fillcolor="#e58139"] ;
404 -> 406 ;
407 [label="方向均值 <= 174.888\ngini = 0.022\nsamples = 91\nvalue = [90, 0, 1]\nclass = 0", fillcolor="#e5823b"] ;
403 -> 407 ;
408 [label="gini = 0.0\nsamples = 82\nvalue = [82, 0, 0]\nclass = 0", fillcolor="#e58139"] ;
407 -> 408 ;
409 [label="速度均值 <= 2.827\ngini = 0.198\nsamples = 9\nvalue = [8, 0, 1]\nclass = 0", fillcolor="#e89152"] ;
407 -> 409 ;
410 [label="gini = 0.0\nsamples = 1\nvalue = [0, 0, 1]\nclass = 2", fillcolor="#8139e5"] ;
409 -> 410 ;
411 [label="gini = 0.0\nsamples = 8\nvalue = [8, 0, 0]\nclass = 0", fillcolor="#e58139"] ;
409 -> 411 ;
412 [label="gini = 0.0\nsamples = 1\nvalue = [0, 0, 1]\nclass = 2", fillcolor="#8139e5"] ;
344 -> 412 ;
413 [label="y最大值 <= 5228023.5\ngini = 0.417\nsamples = 81\nvalue = [57, 24, 0]\nclass = 0", fillcolor="#f0b68c"] ;
341 -> 413 ;
414 [label="速度最大值 <= 15.73\ngini = 0.5\nsamples = 39\nvalue = [19, 20, 0]\nclass = 1", fillcolor="#f5fef9"] ;
413 -> 414 ;
415 [label="y最大值 <= 5103966.5\ngini = 0.417\nsamples = 27\nvalue = [8, 19, 0]\nclass = 1", fillcolor="#8cf0b6"] ;
414 -> 415 ;
416 [label="y最大值 <= 4936001.5\ngini = 0.473\nsamples = 13\nvalue = [8, 5, 0]\nclass = 0", fillcolor="#f5d0b5"] ;
415 -> 416 ;
417 [label="gini = 0.0\nsamples = 5\nvalue = [0, 5, 0]\nclass = 1", fillcolor="#39e581"] ;
416 -> 417 ;
418 [label="gini = 0.0\nsamples = 8\nvalue = [8, 0, 0]\nclass = 0", fillcolor="#e58139"] ;
416 -> 418 ;
419 [label="gini = 0.0\nsamples = 14\nvalue = [0, 14, 0]\nclass = 1", fillcolor="#39e581"] ;
415 -> 419 ;
420 [label="y最大值 <= 5218767.75\ngini = 0.153\nsamples = 12\nvalue = [11, 1, 0]\nclass = 0", fillcolor="#e78c4b"] ;
414 -> 420 ;
421 [label="gini = 0.0\nsamples = 11\nvalue = [11, 0, 0]\nclass = 0", fillcolor="#e58139"] ;
420 -> 421 ;
422 [label="gini = 0.0\nsamples = 1\nvalue = [0, 1, 0]\nclass = 1", fillcolor="#39e581"] ;
420 -> 422 ;
423 [label="x最大值 <= 6515935.0\ngini = 0.172\nsamples = 42\nvalue = [38, 4, 0]\nclass = 0", fillcolor="#e88e4e"] ;
413 -> 423 ;
424 [label="x方差 <= 30163.368\ngini = 0.051\nsamples = 38\nvalue = [37, 1, 0]\nclass = 0", fillcolor="#e6843e"] ;
423 -> 424 ;
425 [label="x方差 <= 27588.276\ngini = 0.32\nsamples = 5\nvalue = [4, 1, 0]\nclass = 0", fillcolor="#eca06a"] ;
424 -> 425 ;
426 [label="gini = 0.0\nsamples = 4\nvalue = [4, 0, 0]\nclass = 0", fillcolor="#e58139"] ;
425 -> 426 ;
427 [label="gini = 0.0\nsamples = 1\nvalue = [0, 1, 0]\nclass = 1", fillcolor="#39e581"] ;
425 -> 427 ;
428 [label="gini = 0.0\nsamples = 33\nvalue = [33, 0, 0]\nclass = 0", fillcolor="#e58139"] ;
424 -> 428 ;
429 [label="速度最大值 <= 60.17\ngini = 0.375\nsamples = 4\nvalue = [1, 3, 0]\nclass = 1", fillcolor="#7beeab"] ;
423 -> 429 ;
430 [label="gini = 0.0\nsamples = 3\nvalue = [0, 3, 0]\nclass = 1", fillcolor="#39e581"] ;
429 -> 430 ;
431 [label="gini = 0.0\nsamples = 1\nvalue = [1, 0, 0]\nclass = 0", fillcolor="#e58139"] ;
429 -> 431 ;
432 [label="y方差 <= 418.093\ngini = 0.566\nsamples = 1988\nvalue = [514, 1165, 309]\nclass = 1", fillcolor="#a8f4c7"] ;
0 -> 432 [labeldistance=2.5, labelangle=-45, headlabel="False"] ;
433 [label="y均值 <= 5412105.5\ngini = 0.605\nsamples = 299\nvalue = [56, 85, 158]\nclass = 2", fillcolor="#d4bbf6"] ;
432 -> 433 ;
434 [label="x均值 <= 6333579.0\ngini = 0.649\nsamples = 200\nvalue = [49, 65, 86]\nclass = 2", fillcolor="#ebe0fb"] ;
433 -> 434 ;
435 [label="x方差 <= 0.191\ngini = 0.475\nsamples = 90\nvalue = [7, 22, 61]\nclass = 2", fillcolor="#b78df0"] ;
434 -> 435 ;
436 [label="速度均值 <= 0.011\ngini = 0.459\nsamples = 28\nvalue = [0, 18, 10]\nclass = 1", fillcolor="#a7f3c7"] ;
435 -> 436 ;
437 [label="gini = 0.0\nsamples = 13\nvalue = [0, 13, 0]\nclass = 1", fillcolor="#39e581"] ;
436 -> 437 ;
438 [label="y均值 <= 5284507.75\ngini = 0.444\nsamples = 15\nvalue = [0, 5, 10]\nclass = 2", fillcolor="#c09cf2"] ;
436 -> 438 ;
439 [label="速度最大值 <= 0.81\ngini = 0.278\nsamples = 12\nvalue = [0, 2, 10]\nclass = 2", fillcolor="#9a61ea"] ;
438 -> 439 ;
440 [label="gini = 0.0\nsamples = 9\nvalue = [0, 0, 9]\nclass = 2", fillcolor="#8139e5"] ;
439 -> 440 ;
441 [label="方向均值 <= 0.998\ngini = 0.444\nsamples = 3\nvalue = [0, 2, 1]\nclass = 1", fillcolor="#9cf2c0"] ;
439 -> 441 ;
442 [label="gini = 0.0\nsamples = 2\nvalue = [0, 2, 0]\nclass = 1", fillcolor="#39e581"] ;
441 -> 442 ;
443 [label="gini = 0.0\nsamples = 1\nvalue = [0, 0, 1]\nclass = 2", fillcolor="#8139e5"] ;
441 -> 443 ;
444 [label="gini = 0.0\nsamples = 3\nvalue = [0, 3, 0]\nclass = 1", fillcolor="#39e581"] ;
438 -> 444 ;
445 [label="y最小值 <= 5384048.25\ngini = 0.306\nsamples = 62\nvalue = [7, 4, 51]\nclass = 2", fillcolor="#9a61ea"] ;
435 -> 445 ;
446 [label="速度最大值 <= 1.35\ngini = 0.219\nsamples = 58\nvalue = [3, 4, 51]\nclass = 2", fillcolor="#9153e8"] ;
445 -> 446 ;
447 [label="y最小值 <= 5277212.75\ngini = 0.43\nsamples = 22\nvalue = [2, 4, 16]\nclass = 2", fillcolor="#ab7bee"] ;
446 -> 447 ;
448 [label="gini = 0.0\nsamples = 16\nvalue = [0, 0, 16]\nclass = 2", fillcolor="#8139e5"] ;
447 -> 448 ;
449 [label="x最小值 <= 6274624.0\ngini = 0.444\nsamples = 6\nvalue = [2, 4, 0]\nclass = 1", fillcolor="#9cf2c0"] ;
447 -> 449 ;
450 [label="gini = 0.0\nsamples = 2\nvalue = [2, 0, 0]\nclass = 0", fillcolor="#e58139"] ;
449 -> 450 ;
451 [label="gini = 0.0\nsamples = 4\nvalue = [0, 4, 0]\nclass = 1", fillcolor="#39e581"] ;
449 -> 451 ;
452 [label="y方差 <= 269.116\ngini = 0.054\nsamples = 36\nvalue = [1, 0, 35]\nclass = 2", fillcolor="#853fe6"] ;
446 -> 452 ;
453 [label="gini = 0.0\nsamples = 34\nvalue = [0, 0, 34]\nclass = 2", fillcolor="#8139e5"] ;
452 -> 453 ;
454 [label="方向均值 <= 54.488\ngini = 0.5\nsamples = 2\nvalue = [1, 0, 1]\nclass = 0", fillcolor="#ffffff"] ;
452 -> 454 ;
455 [label="gini = 0.0\nsamples = 1\nvalue = [0, 0, 1]\nclass = 2", fillcolor="#8139e5"] ;
454 -> 455 ;
456 [label="gini = 0.0\nsamples = 1\nvalue = [1, 0, 0]\nclass = 0", fillcolor="#e58139"] ;
454 -> 456 ;
457 [label="gini = 0.0\nsamples = 4\nvalue = [4, 0, 0]\nclass = 0", fillcolor="#e58139"] ;
445 -> 457 ;
458 [label="y最大值 <= 5351308.75\ngini = 0.65\nsamples = 110\nvalue = [42, 43, 25]\nclass = 1", fillcolor="#fcfffd"] ;
434 -> 458 ;
459 [label="y最大值 <= 5317845.0\ngini = 0.656\nsamples = 60\nvalue = [18, 17, 25]\nclass = 2", fillcolor="#eadefb"] ;
458 -> 459 ;
460 [label="y最小值 <= 5309420.75\ngini = 0.557\nsamples = 32\nvalue = [18, 11, 3]\nclass = 0", fillcolor="#f6d5bd"] ;
459 -> 460 ;
461 [label="gini = 0.0\nsamples = 8\nvalue = [8, 0, 0]\nclass = 0", fillcolor="#e58139"] ;
460 -> 461 ;
462 [label="y均值 <= 5315650.0\ngini = 0.601\nsamples = 24\nvalue = [10, 11, 3]\nclass = 1", fillcolor="#f1fdf6"] ;
460 -> 462 ;
463 [label="速度方差 <= 0.117\ngini = 0.337\nsamples = 14\nvalue = [3, 11, 0]\nclass = 1", fillcolor="#6feca3"] ;
462 -> 463 ;
464 [label="gini = 0.0\nsamples = 2\nvalue = [2, 0, 0]\nclass = 0", fillcolor="#e58139"] ;
463 -> 464 ;
465 [label="y最小值 <= 5315489.0\ngini = 0.153\nsamples = 12\nvalue = [1, 11, 0]\nclass = 1", fillcolor="#4be78c"] ;
463 -> 465 ;
466 [label="gini = 0.0\nsamples = 8\nvalue = [0, 8, 0]\nclass = 1", fillcolor="#39e581"] ;
465 -> 466 ;
467 [label="y方差 <= 30.897\ngini = 0.375\nsamples = 4\nvalue = [1, 3, 0]\nclass = 1", fillcolor="#7beeab"] ;
465 -> 467 ;
468 [label="gini = 0.0\nsamples = 2\nvalue = [0, 2, 0]\nclass = 1", fillcolor="#39e581"] ;
467 -> 468 ;
469 [label="方向均值 <= 109.419\ngini = 0.5\nsamples = 2\nvalue = [1, 1, 0]\nclass = 0", fillcolor="#ffffff"] ;
467 -> 469 ;
470 [label="gini = 0.0\nsamples = 1\nvalue = [0, 1, 0]\nclass = 1", fillcolor="#39e581"] ;
469 -> 470 ;
471 [label="gini = 0.0\nsamples = 1\nvalue = [1, 0, 0]\nclass = 0", fillcolor="#e58139"] ;
469 -> 471 ;
472 [label="方向均值 <= 104.922\ngini = 0.42\nsamples = 10\nvalue = [7, 0, 3]\nclass = 0", fillcolor="#f0b78e"] ;
462 -> 472 ;
473 [label="y均值 <= 5315928.25\ngini = 0.375\nsamples = 4\nvalue = [1, 0, 3]\nclass = 2", fillcolor="#ab7bee"] ;
472 -> 473 ;
474 [label="gini = 0.0\nsamples = 3\nvalue = [0, 0, 3]\nclass = 2", fillcolor="#8139e5"] ;
473 -> 474 ;
475 [label="gini = 0.0\nsamples = 1\nvalue = [1, 0, 0]\nclass = 0", fillcolor="#e58139"] ;
473 -> 475 ;
476 [label="gini = 0.0\nsamples = 6\nvalue = [6, 0, 0]\nclass = 0", fillcolor="#e58139"] ;
472 -> 476 ;
477 [label="x均值 <= 6359490.75\ngini = 0.337\nsamples = 28\nvalue = [0, 6, 22]\nclass = 2", fillcolor="#a36fec"] ;
459 -> 477 ;
478 [label="gini = 0.0\nsamples = 22\nvalue = [0, 0, 22]\nclass = 2", fillcolor="#8139e5"] ;
477 -> 478 ;
479 [label="gini = 0.0\nsamples = 6\nvalue = [0, 6, 0]\nclass = 1", fillcolor="#39e581"] ;
477 -> 479 ;
480 [label="x最小值 <= 6349313.25\ngini = 0.499\nsamples = 50\nvalue = [24, 26, 0]\nclass = 1", fillcolor="#f0fdf5"] ;
458 -> 480 ;
481 [label="y最大值 <= 5363881.75\ngini = 0.328\nsamples = 29\nvalue = [6, 23, 0]\nclass = 1", fillcolor="#6deca2"] ;
480 -> 481 ;
482 [label="y均值 <= 5363772.5\ngini = 0.32\nsamples = 5\nvalue = [4, 1, 0]\nclass = 0", fillcolor="#eca06a"] ;
481 -> 482 ;
483 [label="gini = 0.0\nsamples = 1\nvalue = [0, 1, 0]\nclass = 1", fillcolor="#39e581"] ;
482 -> 483 ;
484 [label="gini = 0.0\nsamples = 4\nvalue = [4, 0, 0]\nclass = 0", fillcolor="#e58139"] ;
482 -> 484 ;
485 [label="方向方差 <= 128.271\ngini = 0.153\nsamples = 24\nvalue = [2, 22, 0]\nclass = 1", fillcolor="#4be78c"] ;
481 -> 485 ;
486 [label="y方差 <= 7.146\ngini = 0.083\nsamples = 23\nvalue = [1, 22, 0]\nclass = 1", fillcolor="#42e687"] ;
485 -> 486 ;
487 [label="gini = 0.0\nsamples = 1\nvalue = [1, 0, 0]\nclass = 0", fillcolor="#e58139"] ;
486 -> 487 ;
488 [label="gini = 0.0\nsamples = 22\nvalue = [0, 22, 0]\nclass = 1", fillcolor="#39e581"] ;
486 -> 488 ;
489 [label="gini = 0.0\nsamples = 1\nvalue = [1, 0, 0]\nclass = 0", fillcolor="#e58139"] ;
485 -> 489 ;
490 [label="x方差 <= 253.016\ngini = 0.245\nsamples = 21\nvalue = [18, 3, 0]\nclass = 0", fillcolor="#e9965a"] ;
480 -> 490 ;
491 [label="y方差 <= 20.241\ngini = 0.105\nsamples = 18\nvalue = [17, 1, 0]\nclass = 0", fillcolor="#e78845"] ;
490 -> 491 ;
492 [label="gini = 0.0\nsamples = 1\nvalue = [0, 1, 0]\nclass = 1", fillcolor="#39e581"] ;
491 -> 492 ;
493 [label="gini = 0.0\nsamples = 17\nvalue = [17, 0, 0]\nclass = 0", fillcolor="#e58139"] ;
491 -> 493 ;
494 [label="方向最大值 <= 357.5\ngini = 0.444\nsamples = 3\nvalue = [1, 2, 0]\nclass = 1", fillcolor="#9cf2c0"] ;
490 -> 494 ;
495 [label="gini = 0.0\nsamples = 1\nvalue = [1, 0, 0]\nclass = 0", fillcolor="#e58139"] ;
494 -> 495 ;
496 [label="gini = 0.0\nsamples = 2\nvalue = [0, 2, 0]\nclass = 1", fillcolor="#39e581"] ;
494 -> 496 ;
497 [label="x最小值 <= 6453431.0\ngini = 0.425\nsamples = 99\nvalue = [7, 20, 72]\nclass = 2", fillcolor="#ac7dee"] ;
433 -> 497 ;
498 [label="方向均值 <= 101.563\ngini = 0.269\nsamples = 75\nvalue = [0, 12, 63]\nclass = 2", fillcolor="#995fea"] ;
497 -> 498 ;
499 [label="y最大值 <= 5475316.0\ngini = 0.375\nsamples = 48\nvalue = [0, 12, 36]\nclass = 2", fillcolor="#ab7bee"] ;
498 -> 499 ;
500 [label="y最大值 <= 5414297.75\ngini = 0.49\nsamples = 14\nvalue = [0, 8, 6]\nclass = 1", fillcolor="#cef8e0"] ;
499 -> 500 ;
501 [label="gini = 0.0\nsamples = 3\nvalue = [0, 0, 3]\nclass = 2", fillcolor="#8139e5"] ;
500 -> 501 ;
502 [label="速度均值 <= 0.032\ngini = 0.397\nsamples = 11\nvalue = [0, 8, 3]\nclass = 1", fillcolor="#83efb0"] ;
500 -> 502 ;
503 [label="gini = 0.0\nsamples = 2\nvalue = [0, 0, 2]\nclass = 2", fillcolor="#8139e5"] ;
502 -> 503 ;
504 [label="x最大值 <= 6393058.25\ngini = 0.198\nsamples = 9\nvalue = [0, 8, 1]\nclass = 1", fillcolor="#52e891"] ;
502 -> 504 ;
505 [label="gini = 0.0\nsamples = 8\nvalue = [0, 8, 0]\nclass = 1", fillcolor="#39e581"] ;
504 -> 505 ;
506 [label="gini = 0.0\nsamples = 1\nvalue = [0, 0, 1]\nclass = 2", fillcolor="#8139e5"] ;
504 -> 506 ;
507 [label="方向方差 <= 115.774\ngini = 0.208\nsamples = 34\nvalue = [0, 4, 30]\nclass = 2", fillcolor="#9253e8"] ;
499 -> 507 ;
508 [label="方向最大值 <= 359.5\ngini = 0.064\nsamples = 30\nvalue = [0, 1, 29]\nclass = 2", fillcolor="#8540e6"] ;
507 -> 508 ;
509 [label="gini = 0.0\nsamples = 28\nvalue = [0, 0, 28]\nclass = 2", fillcolor="#8139e5"] ;
508 -> 509 ;
510 [label="x最小值 <= 6403995.5\ngini = 0.5\nsamples = 2\nvalue = [0, 1, 1]\nclass = 1", fillcolor="#ffffff"] ;
508 -> 510 ;
511 [label="gini = 0.0\nsamples = 1\nvalue = [0, 1, 0]\nclass = 1", fillcolor="#39e581"] ;
510 -> 511 ;
512 [label="gini = 0.0\nsamples = 1\nvalue = [0, 0, 1]\nclass = 2", fillcolor="#8139e5"] ;
510 -> 512 ;
513 [label="速度最大值 <= 6.8\ngini = 0.375\nsamples = 4\nvalue = [0, 3, 1]\nclass = 1", fillcolor="#7beeab"] ;
507 -> 513 ;
514 [label="gini = 0.0\nsamples = 3\nvalue = [0, 3, 0]\nclass = 1", fillcolor="#39e581"] ;
513 -> 514 ;
515 [label="gini = 0.0\nsamples = 1\nvalue = [0, 0, 1]\nclass = 2", fillcolor="#8139e5"] ;
513 -> 515 ;
516 [label="gini = 0.0\nsamples = 27\nvalue = [0, 0, 27]\nclass = 2", fillcolor="#8139e5"] ;
498 -> 516 ;
517 [label="x方差 <= 47.848\ngini = 0.663\nsamples = 24\nvalue = [7, 8, 9]\nclass = 2", fillcolor="#f7f3fd"] ;
497 -> 517 ;
518 [label="方向均值 <= 108.621\ngini = 0.497\nsamples = 13\nvalue = [6, 0, 7]\nclass = 2", fillcolor="#ede3fb"] ;
517 -> 518 ;
519 [label="y最大值 <= 5635599.25\ngini = 0.219\nsamples = 8\nvalue = [1, 0, 7]\nclass = 2", fillcolor="#9355e9"] ;
518 -> 519 ;
520 [label="gini = 0.0\nsamples = 5\nvalue = [0, 0, 5]\nclass = 2", fillcolor="#8139e5"] ;
519 -> 520 ;
521 [label="y最小值 <= 5635544.0\ngini = 0.444\nsamples = 3\nvalue = [1, 0, 2]\nclass = 2", fillcolor="#c09cf2"] ;
519 -> 521 ;
522 [label="gini = 0.0\nsamples = 1\nvalue = [1, 0, 0]\nclass = 0", fillcolor="#e58139"] ;
521 -> 522 ;
523 [label="gini = 0.0\nsamples = 2\nvalue = [0, 0, 2]\nclass = 2", fillcolor="#8139e5"] ;
521 -> 523 ;
524 [label="gini = 0.0\nsamples = 5\nvalue = [5, 0, 0]\nclass = 0", fillcolor="#e58139"] ;
518 -> 524 ;
525 [label="x方差 <= 1456.311\ngini = 0.43\nsamples = 11\nvalue = [1, 8, 2]\nclass = 1", fillcolor="#7beeab"] ;
517 -> 525 ;
526 [label="方向均值 <= 209.473\ngini = 0.198\nsamples = 9\nvalue = [0, 8, 1]\nclass = 1", fillcolor="#52e891"] ;
525 -> 526 ;
527 [label="gini = 0.0\nsamples = 8\nvalue = [0, 8, 0]\nclass = 1", fillcolor="#39e581"] ;
526 -> 527 ;
528 [label="gini = 0.0\nsamples = 1\nvalue = [0, 0, 1]\nclass = 2", fillcolor="#8139e5"] ;
526 -> 528 ;
529 [label="速度最大值 <= 8.88\ngini = 0.5\nsamples = 2\nvalue = [1, 0, 1]\nclass = 0", fillcolor="#ffffff"] ;
525 -> 529 ;
530 [label="gini = 0.0\nsamples = 1\nvalue = [0, 0, 1]\nclass = 2", fillcolor="#8139e5"] ;
529 -> 530 ;
531 [label="gini = 0.0\nsamples = 1\nvalue = [1, 0, 0]\nclass = 0", fillcolor="#e58139"] ;
529 -> 531 ;
532 [label="x最大值 <= 6718840.0\ngini = 0.51\nsamples = 1689\nvalue = [458, 1080, 151]\nclass = 1", fillcolor="#9bf2bf"] ;
432 -> 532 ;
533 [label="方向均值 <= 88.089\ngini = 0.557\nsamples = 1293\nvalue = [417, 741, 135]\nclass = 1", fillcolor="#b6f5d0"] ;
532 -> 533 ;
534 [label="x最大值 <= 6284828.25\ngini = 0.217\nsamples = 176\nvalue = [9, 155, 12]\nclass = 1", fillcolor="#52e891"] ;
533 -> 534 ;
535 [label="gini = 0.0\nsamples = 2\nvalue = [0, 0, 2]\nclass = 2", fillcolor="#8139e5"] ;
534 -> 535 ;
536 [label="x最小值 <= 6327813.5\ngini = 0.2\nsamples = 174\nvalue = [9, 155, 10]\nclass = 1", fillcolor="#50e890"] ;
534 -> 536 ;
537 [label="速度最大值 <= 8.255\ngini = 0.019\nsamples = 103\nvalue = [0, 102, 1]\nclass = 1", fillcolor="#3be582"] ;
536 -> 537 ;
538 [label="方向均值 <= 49.673\ngini = 0.5\nsamples = 2\nvalue = [0, 1, 1]\nclass = 1", fillcolor="#ffffff"] ;
537 -> 538 ;
539 [label="gini = 0.0\nsamples = 1\nvalue = [0, 0, 1]\nclass = 2", fillcolor="#8139e5"] ;
538 -> 539 ;
540 [label="gini = 0.0\nsamples = 1\nvalue = [0, 1, 0]\nclass = 1", fillcolor="#39e581"] ;
538 -> 540 ;
541 [label="gini = 0.0\nsamples = 101\nvalue = [0, 101, 0]\nclass = 1", fillcolor="#39e581"] ;
537 -> 541 ;
542 [label="x方差 <= 1031.55\ngini = 0.411\nsamples = 71\nvalue = [9, 53, 9]\nclass = 1", fillcolor="#72eda6"] ;
536 -> 542 ;
543 [label="gini = 0.0\nsamples = 3\nvalue = [3, 0, 0]\nclass = 0", fillcolor="#e58139"] ;
542 -> 543 ;
544 [label="速度均值 <= 2.293\ngini = 0.367\nsamples = 68\nvalue = [6, 53, 9]\nclass = 1", fillcolor="#6beca1"] ;
542 -> 544 ;
545 [label="x均值 <= 6331983.0\ngini = 0.336\nsamples = 66\nvalue = [6, 53, 7]\nclass = 1", fillcolor="#65eb9d"] ;
544 -> 545 ;
546 [label="方向方差 <= 107.792\ngini = 0.5\nsamples = 2\nvalue = [1, 0, 1]\nclass = 0", fillcolor="#ffffff"] ;
545 -> 546 ;
547 [label="gini = 0.0\nsamples = 1\nvalue = [0, 0, 1]\nclass = 2", fillcolor="#8139e5"] ;
546 -> 547 ;
548 [label="gini = 0.0\nsamples = 1\nvalue = [1, 0, 0]\nclass = 0", fillcolor="#e58139"] ;
546 -> 548 ;
549 [label="x最小值 <= 6529495.75\ngini = 0.299\nsamples = 64\nvalue = [5, 53, 6]\nclass = 1", fillcolor="#5fea99"] ;
545 -> 549 ;
550 [label="y最小值 <= 5275007.5\ngini = 0.208\nsamples = 52\nvalue = [1, 46, 5]\nclass = 1", fillcolor="#52e891"] ;
549 -> 550 ;
551 [label="gini = 0.0\nsamples = 1\nvalue = [1, 0, 0]\nclass = 0", fillcolor="#e58139"] ;
550 -> 551 ;
552 [label="y均值 <= 5463447.25\ngini = 0.177\nsamples = 51\nvalue = [0, 46, 5]\nclass = 1", fillcolor="#4fe88f"] ;
550 -> 552 ;
553 [label="x均值 <= 6409619.75\ngini = 0.391\nsamples = 15\nvalue = [0, 11, 4]\nclass = 1", fillcolor="#81eeaf"] ;
552 -> 553 ;
554 [label="速度最大值 <= 8.66\ngini = 0.153\nsamples = 12\nvalue = [0, 11, 1]\nclass = 1", fillcolor="#4be78c"] ;
553 -> 554 ;
555 [label="速度方差 <= 1.921\ngini = 0.5\nsamples = 2\nvalue = [0, 1, 1]\nclass = 1", fillcolor="#ffffff"] ;
554 -> 555 ;
556 [label="gini = 0.0\nsamples = 1\nvalue = [0, 0, 1]\nclass = 2", fillcolor="#8139e5"] ;
555 -> 556 ;
557 [label="gini = 0.0\nsamples = 1\nvalue = [0, 1, 0]\nclass = 1", fillcolor="#39e581"] ;
555 -> 557 ;
558 [label="gini = 0.0\nsamples = 10\nvalue = [0, 10, 0]\nclass = 1", fillcolor="#39e581"] ;
554 -> 558 ;
559 [label="gini = 0.0\nsamples = 3\nvalue = [0, 0, 3]\nclass = 2", fillcolor="#8139e5"] ;
553 -> 559 ;
560 [label="x最大值 <= 6460488.0\ngini = 0.054\nsamples = 36\nvalue = [0, 35, 1]\nclass = 1", fillcolor="#3fe685"] ;
552 -> 560 ;
561 [label="x最大值 <= 6455144.25\ngini = 0.18\nsamples = 10\nvalue = [0, 9, 1]\nclass = 1", fillcolor="#4fe88f"] ;
560 -> 561 ;
562 [label="gini = 0.0\nsamples = 9\nvalue = [0, 9, 0]\nclass = 1", fillcolor="#39e581"] ;
561 -> 562 ;
563 [label="gini = 0.0\nsamples = 1\nvalue = [0, 0, 1]\nclass = 2", fillcolor="#8139e5"] ;
561 -> 563 ;
564 [label="gini = 0.0\nsamples = 26\nvalue = [0, 26, 0]\nclass = 1", fillcolor="#39e581"] ;
560 -> 564 ;
565 [label="x最小值 <= 6552629.0\ngini = 0.542\nsamples = 12\nvalue = [4, 7, 1]\nclass = 1", fillcolor="#b5f5d0"] ;
549 -> 565 ;
566 [label="gini = 0.0\nsamples = 2\nvalue = [2, 0, 0]\nclass = 0", fillcolor="#e58139"] ;
565 -> 566 ;
567 [label="y方差 <= 9199.982\ngini = 0.46\nsamples = 10\nvalue = [2, 7, 1]\nclass = 1", fillcolor="#83efb0"] ;
565 -> 567 ;
568 [label="y最大值 <= 5784056.25\ngini = 0.444\nsamples = 3\nvalue = [2, 1, 0]\nclass = 0", fillcolor="#f2c09c"] ;
567 -> 568 ;
569 [label="gini = 0.0\nsamples = 1\nvalue = [0, 1, 0]\nclass = 1", fillcolor="#39e581"] ;
568 -> 569 ;
570 [label="gini = 0.0\nsamples = 2\nvalue = [2, 0, 0]\nclass = 0", fillcolor="#e58139"] ;
568 -> 570 ;
571 [label="速度方差 <= 3.099\ngini = 0.245\nsamples = 7\nvalue = [0, 6, 1]\nclass = 1", fillcolor="#5ae996"] ;
567 -> 571 ;
572 [label="gini = 0.0\nsamples = 6\nvalue = [0, 6, 0]\nclass = 1", fillcolor="#39e581"] ;
571 -> 572 ;
573 [label="gini = 0.0\nsamples = 1\nvalue = [0, 0, 1]\nclass = 2", fillcolor="#8139e5"] ;
571 -> 573 ;
574 [label="gini = 0.0\nsamples = 2\nvalue = [0, 0, 2]\nclass = 2", fillcolor="#8139e5"] ;
544 -> 574 ;
575 [label="y最小值 <= 5328700.0\ngini = 0.579\nsamples = 1117\nvalue = [408, 586, 123]\nclass = 1", fillcolor="#cdf8df"] ;
533 -> 575 ;
576 [label="x最大值 <= 6360491.0\ngini = 0.538\nsamples = 237\nvalue = [137, 83, 17]\nclass = 0", fillcolor="#f6d3ba"] ;
575 -> 576 ;
577 [label="x方差 <= 19310.174\ngini = 0.349\nsamples = 38\nvalue = [6, 30, 2]\nclass = 1", fillcolor="#6aeca0"] ;
576 -> 577 ;
578 [label="方向均值 <= 159.923\ngini = 0.184\nsamples = 30\nvalue = [1, 27, 2]\nclass = 1", fillcolor="#4ee88e"] ;
577 -> 578 ;
579 [label="x最大值 <= 6278970.75\ngini = 0.131\nsamples = 29\nvalue = [1, 27, 1]\nclass = 1", fillcolor="#47e78a"] ;
578 -> 579 ;
580 [label="gini = 0.0\nsamples = 1\nvalue = [0, 0, 1]\nclass = 2", fillcolor="#8139e5"] ;
579 -> 580 ;
581 [label="x均值 <= 6281203.5\ngini = 0.069\nsamples = 28\nvalue = [1, 27, 0]\nclass = 1", fillcolor="#40e686"] ;
579 -> 581 ;
582 [label="速度方差 <= 1.786\ngini = 0.444\nsamples = 3\nvalue = [1, 2, 0]\nclass = 1", fillcolor="#9cf2c0"] ;
581 -> 582 ;
583 [label="gini = 0.0\nsamples = 2\nvalue = [0, 2, 0]\nclass = 1", fillcolor="#39e581"] ;
582 -> 583 ;
584 [label="gini = 0.0\nsamples = 1\nvalue = [1, 0, 0]\nclass = 0", fillcolor="#e58139"] ;
582 -> 584 ;
585 [label="gini = 0.0\nsamples = 25\nvalue = [0, 25, 0]\nclass = 1", fillcolor="#39e581"] ;
581 -> 585 ;
586 [label="gini = 0.0\nsamples = 1\nvalue = [0, 0, 1]\nclass = 2", fillcolor="#8139e5"] ;
578 -> 586 ;
587 [label="速度均值 <= 1.091\ngini = 0.469\nsamples = 8\nvalue = [5, 3, 0]\nclass = 0", fillcolor="#f5cdb0"] ;
577 -> 587 ;
588 [label="gini = 0.0\nsamples = 3\nvalue = [0, 3, 0]\nclass = 1", fillcolor="#39e581"] ;
587 -> 588 ;
589 [label="gini = 0.0\nsamples = 5\nvalue = [5, 0, 0]\nclass = 0", fillcolor="#e58139"] ;
587 -> 589 ;
590 [label="速度方差 <= 3.214\ngini = 0.49\nsamples = 199\nvalue = [131, 53, 15]\nclass = 0", fillcolor="#f1bc95"] ;
576 -> 590 ;
591 [label="y最小值 <= 5298219.0\ngini = 0.424\nsamples = 172\nvalue = [125, 36, 11]\nclass = 0", fillcolor="#eead7d"] ;
590 -> 591 ;
592 [label="x均值 <= 6310428.25\ngini = 0.16\nsamples = 93\nvalue = [85, 6, 2]\nclass = 0", fillcolor="#e78d4b"] ;
591 -> 592 ;
593 [label="gini = 0.0\nsamples = 1\nvalue = [0, 1, 0]\nclass = 1", fillcolor="#39e581"] ;
592 -> 593 ;
594 [label="方向方差 <= 109.854\ngini = 0.143\nsamples = 92\nvalue = [85, 5, 2]\nclass = 0", fillcolor="#e78b49"] ;
592 -> 594 ;
595 [label="gini = 0.0\nsamples = 54\nvalue = [54, 0, 0]\nclass = 0", fillcolor="#e58139"] ;
594 -> 595 ;
596 [label="x最小值 <= 6343523.0\ngini = 0.314\nsamples = 38\nvalue = [31, 5, 2]\nclass = 0", fillcolor="#eb9c63"] ;
594 -> 596 ;
597 [label="x最小值 <= 6246274.5\ngini = 0.531\nsamples = 16\nvalue = [10, 4, 2]\nclass = 0", fillcolor="#f2c09c"] ;
596 -> 597 ;
598 [label="gini = 0.0\nsamples = 7\nvalue = [7, 0, 0]\nclass = 0", fillcolor="#e58139"] ;
597 -> 598 ;
599 [label="y最大值 <= 5316038.0\ngini = 0.642\nsamples = 9\nvalue = [3, 4, 2]\nclass = 1", fillcolor="#defbea"] ;
597 -> 599 ;
600 [label="gini = 0.0\nsamples = 3\nvalue = [3, 0, 0]\nclass = 0", fillcolor="#e58139"] ;
599 -> 600 ;
601 [label="x均值 <= 6358087.5\ngini = 0.444\nsamples = 6\nvalue = [0, 4, 2]\nclass = 1", fillcolor="#9cf2c0"] ;
599 -> 601 ;
602 [label="gini = 0.0\nsamples = 3\nvalue = [0, 3, 0]\nclass = 1", fillcolor="#39e581"] ;
601 -> 602 ;
603 [label="速度均值 <= 1.709\ngini = 0.444\nsamples = 3\nvalue = [0, 1, 2]\nclass = 2", fillcolor="#c09cf2"] ;
601 -> 603 ;
604 [label="gini = 0.0\nsamples = 2\nvalue = [0, 0, 2]\nclass = 2", fillcolor="#8139e5"] ;
603 -> 604 ;
605 [label="gini = 0.0\nsamples = 1\nvalue = [0, 1, 0]\nclass = 1", fillcolor="#39e581"] ;
603 -> 605 ;
606 [label="方向方差 <= 122.118\ngini = 0.087\nsamples = 22\nvalue = [21, 1, 0]\nclass = 0", fillcolor="#e68742"] ;
596 -> 606 ;
607 [label="gini = 0.0\nsamples = 20\nvalue = [20, 0, 0]\nclass = 0", fillcolor="#e58139"] ;
606 -> 607 ;
608 [label="y方差 <= 9401.292\ngini = 0.5\nsamples = 2\nvalue = [1, 1, 0]\nclass = 0", fillcolor="#ffffff"] ;
606 -> 608 ;
609 [label="gini = 0.0\nsamples = 1\nvalue = [1, 0, 0]\nclass = 0", fillcolor="#e58139"] ;
608 -> 609 ;
610 [label="gini = 0.0\nsamples = 1\nvalue = [0, 1, 0]\nclass = 1", fillcolor="#39e581"] ;
608 -> 610 ;
611 [label="方向均值 <= 137.163\ngini = 0.586\nsamples = 79\nvalue = [40, 30, 9]\nclass = 0", fillcolor="#fae5d7"] ;
591 -> 611 ;
612 [label="y最小值 <= 5317477.0\ngini = 0.62\nsamples = 46\nvalue = [16, 22, 8]\nclass = 1", fillcolor="#d7fae6"] ;
611 -> 612 ;
613 [label="x最小值 <= 6354783.75\ngini = 0.546\nsamples = 37\nvalue = [16, 19, 2]\nclass = 1", fillcolor="#e3fbed"] ;
612 -> 613 ;
614 [label="y方差 <= 10064.64\ngini = 0.554\nsamples = 28\nvalue = [15, 11, 2]\nclass = 0", fillcolor="#f9e1d0"] ;
613 -> 614 ;
615 [label="速度最大值 <= 8.96\ngini = 0.48\nsamples = 23\nvalue = [15, 7, 1]\nclass = 0", fillcolor="#f2c09c"] ;
614 -> 615 ;
616 [label="速度均值 <= 0.704\ngini = 0.375\nsamples = 4\nvalue = [1, 3, 0]\nclass = 1", fillcolor="#7beeab"] ;
615 -> 616 ;
617 [label="gini = 0.0\nsamples = 1\nvalue = [1, 0, 0]\nclass = 0", fillcolor="#e58139"] ;
616 -> 617 ;
618 [label="gini = 0.0\nsamples = 3\nvalue = [0, 3, 0]\nclass = 1", fillcolor="#39e581"] ;
616 -> 618 ;
619 [label="方向最大值 <= 354.0\ngini = 0.41\nsamples = 19\nvalue = [14, 4, 1]\nclass = 0", fillcolor="#eeab7b"] ;
615 -> 619 ;
620 [label="gini = 0.0\nsamples = 1\nvalue = [0, 1, 0]\nclass = 1", fillcolor="#39e581"] ;
619 -> 620 ;
621 [label="速度最大值 <= 15.135\ngini = 0.364\nsamples = 18\nvalue = [14, 3, 1]\nclass = 0", fillcolor="#eca36e"] ;
619 -> 621 ;
622 [label="x均值 <= 6385135.25\ngini = 0.304\nsamples = 17\nvalue = [14, 2, 1]\nclass = 0", fillcolor="#ea9a61"] ;
621 -> 622 ;
623 [label="方向最大值 <= 359.5\ngini = 0.227\nsamples = 16\nvalue = [14, 1, 1]\nclass = 0", fillcolor="#e89253"] ;
622 -> 623 ;
624 [label="gini = 0.0\nsamples = 12\nvalue = [12, 0, 0]\nclass = 0", fillcolor="#e58139"] ;
623 -> 624 ;
625 [label="y均值 <= 5319165.5\ngini = 0.625\nsamples = 4\nvalue = [2, 1, 1]\nclass = 0", fillcolor="#f6d5bd"] ;
623 -> 625 ;
626 [label="x最小值 <= 6354632.75\ngini = 0.5\nsamples = 2\nvalue = [0, 1, 1]\nclass = 1", fillcolor="#ffffff"] ;
625 -> 626 ;
627 [label="gini = 0.0\nsamples = 1\nvalue = [0, 1, 0]\nclass = 1", fillcolor="#39e581"] ;
626 -> 627 ;
628 [label="gini = 0.0\nsamples = 1\nvalue = [0, 0, 1]\nclass = 2", fillcolor="#8139e5"] ;
626 -> 628 ;
629 [label="gini = 0.0\nsamples = 2\nvalue = [2, 0, 0]\nclass = 0", fillcolor="#e58139"] ;
625 -> 629 ;
630 [label="gini = 0.0\nsamples = 1\nvalue = [0, 1, 0]\nclass = 1", fillcolor="#39e581"] ;
622 -> 630 ;
631 [label="gini = 0.0\nsamples = 1\nvalue = [0, 1, 0]\nclass = 1", fillcolor="#39e581"] ;
621 -> 631 ;
632 [label="方向均值 <= 132.393\ngini = 0.32\nsamples = 5\nvalue = [0, 4, 1]\nclass = 1", fillcolor="#6aeca0"] ;
614 -> 632 ;
633 [label="gini = 0.0\nsamples = 4\nvalue = [0, 4, 0]\nclass = 1", fillcolor="#39e581"] ;
632 -> 633 ;
634 [label="gini = 0.0\nsamples = 1\nvalue = [0, 0, 1]\nclass = 2", fillcolor="#8139e5"] ;
632 -> 634 ;
635 [label="y方差 <= 22710.473\ngini = 0.198\nsamples = 9\nvalue = [1, 8, 0]\nclass = 1", fillcolor="#52e891"] ;
613 -> 635 ;
636 [label="gini = 0.0\nsamples = 8\nvalue = [0, 8, 0]\nclass = 1", fillcolor="#39e581"] ;
635 -> 636 ;
637 [label="gini = 0.0\nsamples = 1\nvalue = [1, 0, 0]\nclass = 0", fillcolor="#e58139"] ;
635 -> 637 ;
638 [label="方向方差 <= 110.381\ngini = 0.444\nsamples = 9\nvalue = [0, 3, 6]\nclass = 2", fillcolor="#c09cf2"] ;
612 -> 638 ;
639 [label="x最大值 <= 6414148.25\ngini = 0.375\nsamples = 4\nvalue = [0, 3, 1]\nclass = 1", fillcolor="#7beeab"] ;
638 -> 639 ;
640 [label="gini = 0.0\nsamples = 3\nvalue = [0, 3, 0]\nclass = 1", fillcolor="#39e581"] ;
639 -> 640 ;
641 [label="gini = 0.0\nsamples = 1\nvalue = [0, 0, 1]\nclass = 2", fillcolor="#8139e5"] ;
639 -> 641 ;
642 [label="gini = 0.0\nsamples = 5\nvalue = [0, 0, 5]\nclass = 2", fillcolor="#8139e5"] ;
638 -> 642 ;
643 [label="方向方差 <= 111.96\ngini = 0.411\nsamples = 33\nvalue = [24, 8, 1]\nclass = 0", fillcolor="#eeae80"] ;
611 -> 643 ;
644 [label="x方差 <= 11924.612\ngini = 0.473\nsamples = 13\nvalue = [5, 8, 0]\nclass = 1", fillcolor="#b5f5d0"] ;
643 -> 644 ;
645 [label="gini = 0.0\nsamples = 3\nvalue = [3, 0, 0]\nclass = 0", fillcolor="#e58139"] ;
644 -> 645 ;
646 [label="y均值 <= 5325163.75\ngini = 0.32\nsamples = 10\nvalue = [2, 8, 0]\nclass = 1", fillcolor="#6aeca0"] ;
644 -> 646 ;
647 [label="gini = 0.0\nsamples = 1\nvalue = [1, 0, 0]\nclass = 0", fillcolor="#e58139"] ;
646 -> 647 ;
648 [label="x最大值 <= 6485918.5\ngini = 0.198\nsamples = 9\nvalue = [1, 8, 0]\nclass = 1", fillcolor="#52e891"] ;
646 -> 648 ;
649 [label="gini = 0.0\nsamples = 8\nvalue = [0, 8, 0]\nclass = 1", fillcolor="#39e581"] ;
648 -> 649 ;
650 [label="gini = 0.0\nsamples = 1\nvalue = [1, 0, 0]\nclass = 0", fillcolor="#e58139"] ;
648 -> 650 ;
651 [label="x均值 <= 6356462.0\ngini = 0.095\nsamples = 20\nvalue = [19, 0, 1]\nclass = 0", fillcolor="#e68843"] ;
643 -> 651 ;
652 [label="gini = 0.0\nsamples = 1\nvalue = [0, 0, 1]\nclass = 2", fillcolor="#8139e5"] ;
651 -> 652 ;
653 [label="gini = 0.0\nsamples = 19\nvalue = [19, 0, 0]\nclass = 0", fillcolor="#e58139"] ;
651 -> 653 ;
654 [label="x最小值 <= 6213192.75\ngini = 0.532\nsamples = 27\nvalue = [6, 17, 4]\nclass = 1", fillcolor="#97f1bd"] ;
590 -> 654 ;
655 [label="gini = 0.0\nsamples = 4\nvalue = [4, 0, 0]\nclass = 0", fillcolor="#e58139"] ;
654 -> 655 ;
656 [label="y方差 <= 18539.086\ngini = 0.416\nsamples = 23\nvalue = [2, 17, 4]\nclass = 1", fillcolor="#78eda9"] ;
654 -> 656 ;
657 [label="y均值 <= 5331128.0\ngini = 0.48\nsamples = 5\nvalue = [2, 0, 3]\nclass = 2", fillcolor="#d5bdf6"] ;
656 -> 657 ;
658 [label="gini = 0.0\nsamples = 2\nvalue = [2, 0, 0]\nclass = 0", fillcolor="#e58139"] ;
657 -> 658 ;
659 [label="gini = 0.0\nsamples = 3\nvalue = [0, 0, 3]\nclass = 2", fillcolor="#8139e5"] ;
657 -> 659 ;
660 [label="速度最大值 <= 35.325\ngini = 0.105\nsamples = 18\nvalue = [0, 17, 1]\nclass = 1", fillcolor="#45e788"] ;
656 -> 660 ;
661 [label="gini = 0.0\nsamples = 16\nvalue = [0, 16, 0]\nclass = 1", fillcolor="#39e581"] ;
660 -> 661 ;
662 [label="y最小值 <= 5250991.75\ngini = 0.5\nsamples = 2\nvalue = [0, 1, 1]\nclass = 1", fillcolor="#ffffff"] ;
660 -> 662 ;
663 [label="gini = 0.0\nsamples = 1\nvalue = [0, 0, 1]\nclass = 2", fillcolor="#8139e5"] ;
662 -> 663 ;
664 [label="gini = 0.0\nsamples = 1\nvalue = [0, 1, 0]\nclass = 1", fillcolor="#39e581"] ;
662 -> 664 ;
665 [label="x方差 <= 14494.863\ngini = 0.564\nsamples = 880\nvalue = [271, 503, 106]\nclass = 1", fillcolor="#b4f5cf"] ;
575 -> 665 ;
666 [label="速度均值 <= 2.21\ngini = 0.642\nsamples = 306\nvalue = [116, 127, 63]\nclass = 1", fillcolor="#f4fdf8"] ;
665 -> 666 ;
667 [label="速度均值 <= 1.398\ngini = 0.652\nsamples = 188\nvalue = [50, 81, 57]\nclass = 1", fillcolor="#dbfae8"] ;
666 -> 667 ;
668 [label="x最大值 <= 6343497.0\ngini = 0.6\nsamples = 127\nvalue = [39, 67, 21]\nclass = 1", fillcolor="#c0f7d7"] ;
667 -> 668 ;
669 [label="方向均值 <= 109.794\ngini = 0.403\nsamples = 12\nvalue = [9, 2, 1]\nclass = 0", fillcolor="#eda774"] ;
668 -> 669 ;
670 [label="y方差 <= 2040.865\ngini = 0.625\nsamples = 4\nvalue = [1, 2, 1]\nclass = 1", fillcolor="#bdf6d5"] ;
669 -> 670 ;
671 [label="速度方差 <= 1.239\ngini = 0.5\nsamples = 2\nvalue = [1, 0, 1]\nclass = 0", fillcolor="#ffffff"] ;
670 -> 671 ;
672 [label="gini = 0.0\nsamples = 1\nvalue = [0, 0, 1]\nclass = 2", fillcolor="#8139e5"] ;
671 -> 672 ;
673 [label="gini = 0.0\nsamples = 1\nvalue = [1, 0, 0]\nclass = 0", fillcolor="#e58139"] ;
671 -> 673 ;
674 [label="gini = 0.0\nsamples = 2\nvalue = [0, 2, 0]\nclass = 1", fillcolor="#39e581"] ;
670 -> 674 ;
675 [label="gini = 0.0\nsamples = 8\nvalue = [8, 0, 0]\nclass = 0", fillcolor="#e58139"] ;
669 -> 675 ;
676 [label="y方差 <= 6852.16\ngini = 0.582\nsamples = 115\nvalue = [30, 65, 20]\nclass = 1", fillcolor="#adf4cb"] ;
668 -> 676 ;
677 [label="方向均值 <= 125.251\ngini = 0.504\nsamples = 72\nvalue = [23, 45, 4]\nclass = 1", fillcolor="#a6f3c6"] ;
676 -> 677 ;
678 [label="y方差 <= 825.007\ngini = 0.418\nsamples = 45\nvalue = [9, 33, 3]\nclass = 1", fillcolor="#7beeab"] ;
677 -> 678 ;
679 [label="y最大值 <= 5615995.75\ngini = 0.494\nsamples = 9\nvalue = [5, 4, 0]\nclass = 0", fillcolor="#fae6d7"] ;
678 -> 679 ;
680 [label="x最小值 <= 6353999.5\ngini = 0.278\nsamples = 6\nvalue = [5, 1, 0]\nclass = 0", fillcolor="#ea9a61"] ;
679 -> 680 ;
681 [label="gini = 0.0\nsamples = 1\nvalue = [0, 1, 0]\nclass = 1", fillcolor="#39e581"] ;
680 -> 681 ;
682 [label="gini = 0.0\nsamples = 5\nvalue = [5, 0, 0]\nclass = 0", fillcolor="#e58139"] ;
680 -> 682 ;
683 [label="gini = 0.0\nsamples = 3\nvalue = [0, 3, 0]\nclass = 1", fillcolor="#39e581"] ;
679 -> 683 ;
684 [label="y方差 <= 2919.287\ngini = 0.332\nsamples = 36\nvalue = [4, 29, 3]\nclass = 1", fillcolor="#64eb9d"] ;
678 -> 684 ;
685 [label="gini = 0.0\nsamples = 17\nvalue = [0, 17, 0]\nclass = 1", fillcolor="#39e581"] ;
684 -> 685 ;
686 [label="y方差 <= 3421.659\ngini = 0.532\nsamples = 19\nvalue = [4, 12, 3]\nclass = 1", fillcolor="#95f1bc"] ;
684 -> 686 ;
687 [label="方向均值 <= 100.139\ngini = 0.444\nsamples = 3\nvalue = [1, 0, 2]\nclass = 2", fillcolor="#c09cf2"] ;
686 -> 687 ;
688 [label="gini = 0.0\nsamples = 2\nvalue = [0, 0, 2]\nclass = 2", fillcolor="#8139e5"] ;
687 -> 688 ;
689 [label="gini = 0.0\nsamples = 1\nvalue = [1, 0, 0]\nclass = 0", fillcolor="#e58139"] ;
687 -> 689 ;
690 [label="x方差 <= 11387.304\ngini = 0.398\nsamples = 16\nvalue = [3, 12, 1]\nclass = 1", fillcolor="#76eda8"] ;
686 -> 690 ;
691 [label="x方差 <= 10240.307\ngini = 0.153\nsamples = 12\nvalue = [0, 11, 1]\nclass = 1", fillcolor="#4be78c"] ;
690 -> 691 ;
692 [label="gini = 0.0\nsamples = 10\nvalue = [0, 10, 0]\nclass = 1", fillcolor="#39e581"] ;
691 -> 692 ;
693 [label="x方差 <= 11131.569\ngini = 0.5\nsamples = 2\nvalue = [0, 1, 1]\nclass = 1", fillcolor="#ffffff"] ;
691 -> 693 ;
694 [label="gini = 0.0\nsamples = 1\nvalue = [0, 0, 1]\nclass = 2", fillcolor="#8139e5"] ;
693 -> 694 ;
695 [label="gini = 0.0\nsamples = 1\nvalue = [0, 1, 0]\nclass = 1", fillcolor="#39e581"] ;
693 -> 695 ;
696 [label="x最小值 <= 6508957.0\ngini = 0.375\nsamples = 4\nvalue = [3, 1, 0]\nclass = 0", fillcolor="#eeab7b"] ;
690 -> 696 ;
697 [label="gini = 0.0\nsamples = 3\nvalue = [3, 0, 0]\nclass = 0", fillcolor="#e58139"] ;
696 -> 697 ;
698 [label="gini = 0.0\nsamples = 1\nvalue = [0, 1, 0]\nclass = 1", fillcolor="#39e581"] ;
696 -> 698 ;
699 [label="y最小值 <= 5406063.0\ngini = 0.532\nsamples = 27\nvalue = [14, 12, 1]\nclass = 0", fillcolor="#fceee5"] ;
677 -> 699 ;
700 [label="方向方差 <= 123.248\ngini = 0.165\nsamples = 11\nvalue = [10, 1, 0]\nclass = 0", fillcolor="#e88e4d"] ;
699 -> 700 ;
701 [label="gini = 0.0\nsamples = 9\nvalue = [9, 0, 0]\nclass = 0", fillcolor="#e58139"] ;
700 -> 701 ;
702 [label="方向方差 <= 124.489\ngini = 0.5\nsamples = 2\nvalue = [1, 1, 0]\nclass = 0", fillcolor="#ffffff"] ;
700 -> 702 ;
703 [label="gini = 0.0\nsamples = 1\nvalue = [0, 1, 0]\nclass = 1", fillcolor="#39e581"] ;
702 -> 703 ;
704 [label="gini = 0.0\nsamples = 1\nvalue = [1, 0, 0]\nclass = 0", fillcolor="#e58139"] ;
702 -> 704 ;
705 [label="x方差 <= 11850.318\ngini = 0.461\nsamples = 16\nvalue = [4, 11, 1]\nclass = 1", fillcolor="#8cf0b6"] ;
699 -> 705 ;
706 [label="y最小值 <= 5632236.25\ngini = 0.272\nsamples = 13\nvalue = [1, 11, 1]\nclass = 1", fillcolor="#5ae996"] ;
705 -> 706 ;
707 [label="y方差 <= 614.596\ngini = 0.153\nsamples = 12\nvalue = [0, 11, 1]\nclass = 1", fillcolor="#4be78c"] ;
706 -> 707 ;
708 [label="gini = 0.0\nsamples = 1\nvalue = [0, 0, 1]\nclass = 2", fillcolor="#8139e5"] ;
707 -> 708 ;
709 [label="gini = 0.0\nsamples = 11\nvalue = [0, 11, 0]\nclass = 1", fillcolor="#39e581"] ;
707 -> 709 ;
710 [label="gini = 0.0\nsamples = 1\nvalue = [1, 0, 0]\nclass = 0", fillcolor="#e58139"] ;
706 -> 710 ;
711 [label="gini = 0.0\nsamples = 3\nvalue = [3, 0, 0]\nclass = 0", fillcolor="#e58139"] ;
705 -> 711 ;
712 [label="y最小值 <= 5484836.75\ngini = 0.619\nsamples = 43\nvalue = [7, 20, 16]\nclass = 1", fillcolor="#e2fbec"] ;
676 -> 712 ;
713 [label="x最大值 <= 6375696.75\ngini = 0.544\nsamples = 23\nvalue = [6, 14, 3]\nclass = 1", fillcolor="#a2f3c4"] ;
712 -> 713 ;
714 [label="gini = 0.0\nsamples = 3\nvalue = [0, 0, 3]\nclass = 2", fillcolor="#8139e5"] ;
713 -> 714 ;
715 [label="x方差 <= 5955.289\ngini = 0.42\nsamples = 20\nvalue = [6, 14, 0]\nclass = 1", fillcolor="#8ef0b7"] ;
713 -> 715 ;
716 [label="gini = 0.0\nsamples = 3\nvalue = [3, 0, 0]\nclass = 0", fillcolor="#e58139"] ;
715 -> 716 ;
717 [label="x最小值 <= 6363774.25\ngini = 0.291\nsamples = 17\nvalue = [3, 14, 0]\nclass = 1", fillcolor="#63eb9c"] ;
715 -> 717 ;
718 [label="y均值 <= 5403642.5\ngini = 0.42\nsamples = 10\nvalue = [3, 7, 0]\nclass = 1", fillcolor="#8ef0b7"] ;
717 -> 718 ;
719 [label="gini = 0.0\nsamples = 5\nvalue = [0, 5, 0]\nclass = 1", fillcolor="#39e581"] ;
718 -> 719 ;
720 [label="方向均值 <= 131.508\ngini = 0.48\nsamples = 5\nvalue = [3, 2, 0]\nclass = 0", fillcolor="#f6d5bd"] ;
718 -> 720 ;
721 [label="gini = 0.0\nsamples = 3\nvalue = [3, 0, 0]\nclass = 0", fillcolor="#e58139"] ;
720 -> 721 ;
722 [label="gini = 0.0\nsamples = 2\nvalue = [0, 2, 0]\nclass = 1", fillcolor="#39e581"] ;
720 -> 722 ;
723 [label="gini = 0.0\nsamples = 7\nvalue = [0, 7, 0]\nclass = 1", fillcolor="#39e581"] ;
717 -> 723 ;
724 [label="方向最大值 <= 357.5\ngini = 0.485\nsamples = 20\nvalue = [1, 6, 13]\nclass = 2", fillcolor="#c09cf2"] ;
712 -> 724 ;
725 [label="gini = 0.0\nsamples = 5\nvalue = [0, 5, 0]\nclass = 1", fillcolor="#39e581"] ;
724 -> 725 ;
726 [label="速度方差 <= 2.497\ngini = 0.24\nsamples = 15\nvalue = [1, 1, 13]\nclass = 2", fillcolor="#9355e9"] ;
724 -> 726 ;
727 [label="速度均值 <= 1.376\ngini = 0.133\nsamples = 14\nvalue = [0, 1, 13]\nclass = 2", fillcolor="#8b48e7"] ;
726 -> 727 ;
728 [label="gini = 0.0\nsamples = 13\nvalue = [0, 0, 13]\nclass = 2", fillcolor="#8139e5"] ;
727 -> 728 ;
729 [label="gini = 0.0\nsamples = 1\nvalue = [0, 1, 0]\nclass = 1", fillcolor="#39e581"] ;
727 -> 729 ;
730 [label="gini = 0.0\nsamples = 1\nvalue = [1, 0, 0]\nclass = 0", fillcolor="#e58139"] ;
726 -> 730 ;
731 [label="y最大值 <= 5436771.75\ngini = 0.567\nsamples = 61\nvalue = [11, 14, 36]\nclass = 2", fillcolor="#c4a2f3"] ;
667 -> 731 ;
732 [label="y均值 <= 5390114.5\ngini = 0.637\nsamples = 17\nvalue = [8, 5, 4]\nclass = 0", fillcolor="#f8e0ce"] ;
731 -> 732 ;
733 [label="x最小值 <= 6334172.25\ngini = 0.58\nsamples = 10\nvalue = [1, 5, 4]\nclass = 1", fillcolor="#defbea"] ;
732 -> 733 ;
734 [label="x方差 <= 4372.337\ngini = 0.32\nsamples = 5\nvalue = [1, 0, 4]\nclass = 2", fillcolor="#a06aec"] ;
733 -> 734 ;
735 [label="gini = 0.0\nsamples = 1\nvalue = [1, 0, 0]\nclass = 0", fillcolor="#e58139"] ;
734 -> 735 ;
736 [label="gini = 0.0\nsamples = 4\nvalue = [0, 0, 4]\nclass = 2", fillcolor="#8139e5"] ;
734 -> 736 ;
737 [label="gini = 0.0\nsamples = 5\nvalue = [0, 5, 0]\nclass = 1", fillcolor="#39e581"] ;
733 -> 737 ;
738 [label="gini = 0.0\nsamples = 7\nvalue = [7, 0, 0]\nclass = 0", fillcolor="#e58139"] ;
732 -> 738 ;
739 [label="方向均值 <= 157.189\ngini = 0.425\nsamples = 44\nvalue = [3, 9, 32]\nclass = 2", fillcolor="#ac7dee"] ;
731 -> 739 ;
740 [label="方向方差 <= 110.309\ngini = 0.245\nsamples = 29\nvalue = [1, 3, 25]\nclass = 2", fillcolor="#9457e9"] ;
739 -> 740 ;
741 [label="gini = 0.0\nsamples = 2\nvalue = [0, 2, 0]\nclass = 1", fillcolor="#39e581"] ;
740 -> 741 ;
742 [label="y方差 <= 22815.344\ngini = 0.14\nsamples = 27\nvalue = [1, 1, 25]\nclass = 2", fillcolor="#8b48e7"] ;
740 -> 742 ;
743 [label="y均值 <= 5621308.25\ngini = 0.077\nsamples = 25\nvalue = [0, 1, 24]\nclass = 2", fillcolor="#8641e6"] ;
742 -> 743 ;
744 [label="gini = 0.0\nsamples = 21\nvalue = [0, 0, 21]\nclass = 2", fillcolor="#8139e5"] ;
743 -> 744 ;
745 [label="方向最大值 <= 357.5\ngini = 0.375\nsamples = 4\nvalue = [0, 1, 3]\nclass = 2", fillcolor="#ab7bee"] ;
743 -> 745 ;
746 [label="gini = 0.0\nsamples = 1\nvalue = [0, 1, 0]\nclass = 1", fillcolor="#39e581"] ;
745 -> 746 ;
747 [label="gini = 0.0\nsamples = 3\nvalue = [0, 0, 3]\nclass = 2", fillcolor="#8139e5"] ;
745 -> 747 ;
748 [label="x方差 <= 8439.066\ngini = 0.5\nsamples = 2\nvalue = [1, 0, 1]\nclass = 0", fillcolor="#ffffff"] ;
742 -> 748 ;
749 [label="gini = 0.0\nsamples = 1\nvalue = [0, 0, 1]\nclass = 2", fillcolor="#8139e5"] ;
748 -> 749 ;
750 [label="gini = 0.0\nsamples = 1\nvalue = [1, 0, 0]\nclass = 0", fillcolor="#e58139"] ;
748 -> 750 ;
751 [label="速度方差 <= 2.421\ngini = 0.604\nsamples = 15\nvalue = [2, 6, 7]\nclass = 2", fillcolor="#f1e9fc"] ;
739 -> 751 ;
752 [label="速度方差 <= 1.322\ngini = 0.449\nsamples = 7\nvalue = [1, 5, 1]\nclass = 1", fillcolor="#7beeab"] ;
751 -> 752 ;
753 [label="x均值 <= 6615630.75\ngini = 0.5\nsamples = 2\nvalue = [1, 0, 1]\nclass = 0", fillcolor="#ffffff"] ;
752 -> 753 ;
754 [label="gini = 0.0\nsamples = 1\nvalue = [1, 0, 0]\nclass = 0", fillcolor="#e58139"] ;
753 -> 754 ;
755 [label="gini = 0.0\nsamples = 1\nvalue = [0, 0, 1]\nclass = 2", fillcolor="#8139e5"] ;
753 -> 755 ;
756 [label="gini = 0.0\nsamples = 5\nvalue = [0, 5, 0]\nclass = 1", fillcolor="#39e581"] ;
752 -> 756 ;
757 [label="速度方差 <= 2.718\ngini = 0.406\nsamples = 8\nvalue = [1, 1, 6]\nclass = 2", fillcolor="#a572ec"] ;
751 -> 757 ;
758 [label="gini = 0.0\nsamples = 6\nvalue = [0, 0, 6]\nclass = 2", fillcolor="#8139e5"] ;
757 -> 758 ;
759 [label="y方差 <= 15921.193\ngini = 0.5\nsamples = 2\nvalue = [1, 1, 0]\nclass = 0", fillcolor="#ffffff"] ;
757 -> 759 ;
760 [label="gini = 0.0\nsamples = 1\nvalue = [0, 1, 0]\nclass = 1", fillcolor="#39e581"] ;
759 -> 760 ;
761 [label="gini = 0.0\nsamples = 1\nvalue = [1, 0, 0]\nclass = 0", fillcolor="#e58139"] ;
759 -> 761 ;
762 [label="x最大值 <= 6571166.5\ngini = 0.533\nsamples = 118\nvalue = [66, 46, 6]\nclass = 0", fillcolor="#f8dcc8"] ;
666 -> 762 ;
763 [label="速度方差 <= 2.201\ngini = 0.565\nsamples = 62\nvalue = [25, 32, 5]\nclass = 1", fillcolor="#dafae7"] ;
762 -> 763 ;
764 [label="x最小值 <= 6498189.0\ngini = 0.408\nsamples = 35\nvalue = [10, 25, 0]\nclass = 1", fillcolor="#88efb3"] ;
763 -> 764 ;
765 [label="方向方差 <= 120.821\ngini = 0.236\nsamples = 22\nvalue = [3, 19, 0]\nclass = 1", fillcolor="#58e995"] ;
764 -> 765 ;
766 [label="方向均值 <= 180.89\ngini = 0.172\nsamples = 21\nvalue = [2, 19, 0]\nclass = 1", fillcolor="#4ee88e"] ;
765 -> 766 ;
767 [label="x方差 <= 6514.833\ngini = 0.095\nsamples = 20\nvalue = [1, 19, 0]\nclass = 1", fillcolor="#43e688"] ;
766 -> 767 ;
768 [label="y方差 <= 11265.192\ngini = 0.444\nsamples = 3\nvalue = [1, 2, 0]\nclass = 1", fillcolor="#9cf2c0"] ;
767 -> 768 ;
769 [label="gini = 0.0\nsamples = 1\nvalue = [1, 0, 0]\nclass = 0", fillcolor="#e58139"] ;
768 -> 769 ;
770 [label="gini = 0.0\nsamples = 2\nvalue = [0, 2, 0]\nclass = 1", fillcolor="#39e581"] ;
768 -> 770 ;
771 [label="gini = 0.0\nsamples = 17\nvalue = [0, 17, 0]\nclass = 1", fillcolor="#39e581"] ;
767 -> 771 ;
772 [label="gini = 0.0\nsamples = 1\nvalue = [1, 0, 0]\nclass = 0", fillcolor="#e58139"] ;
766 -> 772 ;
773 [label="gini = 0.0\nsamples = 1\nvalue = [1, 0, 0]\nclass = 0", fillcolor="#e58139"] ;
765 -> 773 ;
774 [label="速度方差 <= 1.804\ngini = 0.497\nsamples = 13\nvalue = [7, 6, 0]\nclass = 0", fillcolor="#fbede3"] ;
764 -> 774 ;
775 [label="y方差 <= 20226.685\ngini = 0.219\nsamples = 8\nvalue = [7, 1, 0]\nclass = 0", fillcolor="#e99355"] ;
774 -> 775 ;
776 [label="gini = 0.0\nsamples = 7\nvalue = [7, 0, 0]\nclass = 0", fillcolor="#e58139"] ;
775 -> 776 ;
777 [label="gini = 0.0\nsamples = 1\nvalue = [0, 1, 0]\nclass = 1", fillcolor="#39e581"] ;
775 -> 777 ;
778 [label="gini = 0.0\nsamples = 5\nvalue = [0, 5, 0]\nclass = 1", fillcolor="#39e581"] ;
774 -> 778 ;
779 [label="方向最大值 <= 359.5\ngini = 0.59\nsamples = 27\nvalue = [15, 7, 5]\nclass = 0", fillcolor="#f5cdb0"] ;
763 -> 779 ;
780 [label="速度均值 <= 2.398\ngini = 0.593\nsamples = 9\nvalue = [1, 4, 4]\nclass = 1", fillcolor="#ffffff"] ;
779 -> 780 ;
781 [label="gini = 0.0\nsamples = 2\nvalue = [0, 0, 2]\nclass = 2", fillcolor="#8139e5"] ;
780 -> 781 ;
782 [label="方向最大值 <= 358.5\ngini = 0.571\nsamples = 7\nvalue = [1, 4, 2]\nclass = 1", fillcolor="#b0f5cd"] ;
780 -> 782 ;
783 [label="gini = 0.0\nsamples = 4\nvalue = [0, 4, 0]\nclass = 1", fillcolor="#39e581"] ;
782 -> 783 ;
784 [label="速度方差 <= 3.142\ngini = 0.444\nsamples = 3\nvalue = [1, 0, 2]\nclass = 2", fillcolor="#c09cf2"] ;
782 -> 784 ;
785 [label="gini = 0.0\nsamples = 1\nvalue = [1, 0, 0]\nclass = 0", fillcolor="#e58139"] ;
784 -> 785 ;
786 [label="gini = 0.0\nsamples = 2\nvalue = [0, 0, 2]\nclass = 2", fillcolor="#8139e5"] ;
784 -> 786 ;
787 [label="x最大值 <= 6541747.25\ngini = 0.364\nsamples = 18\nvalue = [14, 3, 1]\nclass = 0", fillcolor="#eca36e"] ;
779 -> 787 ;
788 [label="速度方差 <= 3.616\ngini = 0.133\nsamples = 14\nvalue = [13, 0, 1]\nclass = 0", fillcolor="#e78b48"] ;
787 -> 788 ;
789 [label="gini = 0.0\nsamples = 13\nvalue = [13, 0, 0]\nclass = 0", fillcolor="#e58139"] ;
788 -> 789 ;
790 [label="gini = 0.0\nsamples = 1\nvalue = [0, 0, 1]\nclass = 2", fillcolor="#8139e5"] ;
788 -> 790 ;
791 [label="x方差 <= 8000.347\ngini = 0.375\nsamples = 4\nvalue = [1, 3, 0]\nclass = 1", fillcolor="#7beeab"] ;
787 -> 791 ;
792 [label="gini = 0.0\nsamples = 1\nvalue = [1, 0, 0]\nclass = 0", fillcolor="#e58139"] ;
791 -> 792 ;
793 [label="gini = 0.0\nsamples = 3\nvalue = [0, 3, 0]\nclass = 1", fillcolor="#39e581"] ;
791 -> 793 ;
794 [label="x最小值 <= 6679149.5\ngini = 0.401\nsamples = 56\nvalue = [41, 14, 1]\nclass = 0", fillcolor="#eeae80"] ;
762 -> 794 ;
795 [label="速度均值 <= 2.917\ngini = 0.334\nsamples = 52\nvalue = [41, 11, 0]\nclass = 0", fillcolor="#eca36e"] ;
794 -> 795 ;
796 [label="速度最小值 <= 0.165\ngini = 0.087\nsamples = 22\nvalue = [21, 1, 0]\nclass = 0", fillcolor="#e68742"] ;
795 -> 796 ;
797 [label="gini = 0.0\nsamples = 19\nvalue = [19, 0, 0]\nclass = 0", fillcolor="#e58139"] ;
796 -> 797 ;
798 [label="x最小值 <= 6588446.5\ngini = 0.444\nsamples = 3\nvalue = [2, 1, 0]\nclass = 0", fillcolor="#f2c09c"] ;
796 -> 798 ;
799 [label="gini = 0.0\nsamples = 2\nvalue = [2, 0, 0]\nclass = 0", fillcolor="#e58139"] ;
798 -> 799 ;
800 [label="gini = 0.0\nsamples = 1\nvalue = [0, 1, 0]\nclass = 1", fillcolor="#39e581"] ;
798 -> 800 ;
801 [label="x最小值 <= 6591323.0\ngini = 0.444\nsamples = 30\nvalue = [20, 10, 0]\nclass = 0", fillcolor="#f2c09c"] ;
795 -> 801 ;
802 [label="x均值 <= 6561037.0\ngini = 0.48\nsamples = 15\nvalue = [6, 9, 0]\nclass = 1", fillcolor="#bdf6d5"] ;
801 -> 802 ;
803 [label="gini = 0.0\nsamples = 3\nvalue = [3, 0, 0]\nclass = 0", fillcolor="#e58139"] ;
802 -> 803 ;
804 [label="y最小值 <= 5598390.75\ngini = 0.375\nsamples = 12\nvalue = [3, 9, 0]\nclass = 1", fillcolor="#7beeab"] ;
802 -> 804 ;
805 [label="速度方差 <= 2.251\ngini = 0.198\nsamples = 9\nvalue = [1, 8, 0]\nclass = 1", fillcolor="#52e891"] ;
804 -> 805 ;
806 [label="gini = 0.0\nsamples = 7\nvalue = [0, 7, 0]\nclass = 1", fillcolor="#39e581"] ;
805 -> 806 ;
807 [label="y最小值 <= 5569228.0\ngini = 0.5\nsamples = 2\nvalue = [1, 1, 0]\nclass = 0", fillcolor="#ffffff"] ;
805 -> 807 ;
808 [label="gini = 0.0\nsamples = 1\nvalue = [1, 0, 0]\nclass = 0", fillcolor="#e58139"] ;
807 -> 808 ;
809 [label="gini = 0.0\nsamples = 1\nvalue = [0, 1, 0]\nclass = 1", fillcolor="#39e581"] ;
807 -> 809 ;
810 [label="速度均值 <= 3.135\ngini = 0.444\nsamples = 3\nvalue = [2, 1, 0]\nclass = 0", fillcolor="#f2c09c"] ;
804 -> 810 ;
811 [label="gini = 0.0\nsamples = 1\nvalue = [0, 1, 0]\nclass = 1", fillcolor="#39e581"] ;
810 -> 811 ;
812 [label="gini = 0.0\nsamples = 2\nvalue = [2, 0, 0]\nclass = 0", fillcolor="#e58139"] ;
810 -> 812 ;
813 [label="方向方差 <= 127.188\ngini = 0.124\nsamples = 15\nvalue = [14, 1, 0]\nclass = 0", fillcolor="#e78a47"] ;
801 -> 813 ;
814 [label="gini = 0.0\nsamples = 14\nvalue = [14, 0, 0]\nclass = 0", fillcolor="#e58139"] ;
813 -> 814 ;
815 [label="gini = 0.0\nsamples = 1\nvalue = [0, 1, 0]\nclass = 1", fillcolor="#39e581"] ;
813 -> 815 ;
816 [label="x均值 <= 6701200.25\ngini = 0.375\nsamples = 4\nvalue = [0, 3, 1]\nclass = 1", fillcolor="#7beeab"] ;
794 -> 816 ;
817 [label="gini = 0.0\nsamples = 3\nvalue = [0, 3, 0]\nclass = 1", fillcolor="#39e581"] ;
816 -> 817 ;
818 [label="gini = 0.0\nsamples = 1\nvalue = [0, 0, 1]\nclass = 2", fillcolor="#8139e5"] ;
816 -> 818 ;
819 [label="x最小值 <= 6485591.5\ngini = 0.492\nsamples = 574\nvalue = [155, 376, 43]\nclass = 1", fillcolor="#97f1bd"] ;
665 -> 819 ;
820 [label="x最大值 <= 6434341.75\ngini = 0.402\nsamples = 354\nvalue = [69, 264, 21]\nclass = 1", fillcolor="#78eda9"] ;
819 -> 820 ;
821 [label="y最小值 <= 5364281.75\ngini = 0.522\nsamples = 71\nvalue = [31, 38, 2]\nclass = 1", fillcolor="#dcfae9"] ;
820 -> 821 ;
822 [label="x最小值 <= 6365119.5\ngini = 0.34\nsamples = 44\nvalue = [7, 35, 2]\nclass = 1", fillcolor="#69eba0"] ;
821 -> 822 ;
823 [label="速度均值 <= 0.894\ngini = 0.259\nsamples = 41\nvalue = [4, 35, 2]\nclass = 1", fillcolor="#59e995"] ;
822 -> 823 ;
824 [label="y均值 <= 5353874.5\ngini = 0.444\nsamples = 3\nvalue = [0, 1, 2]\nclass = 2", fillcolor="#c09cf2"] ;
823 -> 824 ;
825 [label="gini = 0.0\nsamples = 1\nvalue = [0, 1, 0]\nclass = 1", fillcolor="#39e581"] ;
824 -> 825 ;
826 [label="gini = 0.0\nsamples = 2\nvalue = [0, 0, 2]\nclass = 2", fillcolor="#8139e5"] ;
824 -> 826 ;
827 [label="速度最大值 <= 35.325\ngini = 0.188\nsamples = 38\nvalue = [4, 34, 0]\nclass = 1", fillcolor="#50e890"] ;
823 -> 827 ;
828 [label="y最大值 <= 5409853.0\ngini = 0.149\nsamples = 37\nvalue = [3, 34, 0]\nclass = 1", fillcolor="#4ae78c"] ;
827 -> 828 ;
829 [label="gini = 0.0\nsamples = 23\nvalue = [0, 23, 0]\nclass = 1", fillcolor="#39e581"] ;
828 -> 829 ;
830 [label="x均值 <= 6390925.5\ngini = 0.337\nsamples = 14\nvalue = [3, 11, 0]\nclass = 1", fillcolor="#6feca3"] ;
828 -> 830 ;
831 [label="x最小值 <= 6363873.75\ngini = 0.5\nsamples = 6\nvalue = [3, 3, 0]\nclass = 0", fillcolor="#ffffff"] ;
830 -> 831 ;
832 [label="gini = 0.0\nsamples = 3\nvalue = [3, 0, 0]\nclass = 0", fillcolor="#e58139"] ;
831 -> 832 ;
833 [label="gini = 0.0\nsamples = 3\nvalue = [0, 3, 0]\nclass = 1", fillcolor="#39e581"] ;
831 -> 833 ;
834 [label="gini = 0.0\nsamples = 8\nvalue = [0, 8, 0]\nclass = 1", fillcolor="#39e581"] ;
830 -> 834 ;
835 [label="gini = 0.0\nsamples = 1\nvalue = [1, 0, 0]\nclass = 0", fillcolor="#e58139"] ;
827 -> 835 ;
836 [label="gini = 0.0\nsamples = 3\nvalue = [3, 0, 0]\nclass = 0", fillcolor="#e58139"] ;
822 -> 836 ;
837 [label="x最小值 <= 6351160.75\ngini = 0.198\nsamples = 27\nvalue = [24, 3, 0]\nclass = 0", fillcolor="#e89152"] ;
821 -> 837 ;
838 [label="y均值 <= 5422108.25\ngini = 0.375\nsamples = 4\nvalue = [1, 3, 0]\nclass = 1", fillcolor="#7beeab"] ;
837 -> 838 ;
839 [label="gini = 0.0\nsamples = 3\nvalue = [0, 3, 0]\nclass = 1", fillcolor="#39e581"] ;
838 -> 839 ;
840 [label="gini = 0.0\nsamples = 1\nvalue = [1, 0, 0]\nclass = 0", fillcolor="#e58139"] ;
838 -> 840 ;
841 [label="gini = 0.0\nsamples = 23\nvalue = [23, 0, 0]\nclass = 0", fillcolor="#e58139"] ;
837 -> 841 ;
842 [label="y最大值 <= 5416274.5\ngini = 0.34\nsamples = 283\nvalue = [38, 226, 19]\nclass = 1", fillcolor="#67eb9e"] ;
820 -> 842 ;
843 [label="y方差 <= 12867.015\ngini = 0.491\nsamples = 23\nvalue = [10, 13, 0]\nclass = 1", fillcolor="#d1f9e2"] ;
842 -> 843 ;
844 [label="速度最大值 <= 35.325\ngini = 0.32\nsamples = 10\nvalue = [8, 2, 0]\nclass = 0", fillcolor="#eca06a"] ;
843 -> 844 ;
845 [label="x最大值 <= 6530079.25\ngini = 0.198\nsamples = 9\nvalue = [8, 1, 0]\nclass = 0", fillcolor="#e89152"] ;
844 -> 845 ;
846 [label="gini = 0.0\nsamples = 8\nvalue = [8, 0, 0]\nclass = 0", fillcolor="#e58139"] ;
845 -> 846 ;
847 [label="gini = 0.0\nsamples = 1\nvalue = [0, 1, 0]\nclass = 1", fillcolor="#39e581"] ;
845 -> 847 ;
848 [label="gini = 0.0\nsamples = 1\nvalue = [0, 1, 0]\nclass = 1", fillcolor="#39e581"] ;
844 -> 848 ;
849 [label="x方差 <= 30532.784\ngini = 0.26\nsamples = 13\nvalue = [2, 11, 0]\nclass = 1", fillcolor="#5dea98"] ;
843 -> 849 ;
850 [label="gini = 0.0\nsamples = 2\nvalue = [2, 0, 0]\nclass = 0", fillcolor="#e58139"] ;
849 -> 850 ;
851 [label="gini = 0.0\nsamples = 11\nvalue = [0, 11, 0]\nclass = 1", fillcolor="#39e581"] ;
849 -> 851 ;
852 [label="y最大值 <= 5544682.5\ngini = 0.312\nsamples = 260\nvalue = [28, 213, 19]\nclass = 1", fillcolor="#61ea9b"] ;
842 -> 852 ;
853 [label="速度均值 <= 0.842\ngini = 0.198\nsamples = 176\nvalue = [8, 157, 11]\nclass = 1", fillcolor="#50e890"] ;
852 -> 853 ;
854 [label="gini = 0.0\nsamples = 1\nvalue = [1, 0, 0]\nclass = 0", fillcolor="#e58139"] ;
853 -> 854 ;
855 [label="速度最大值 <= 55.505\ngini = 0.19\nsamples = 175\nvalue = [7, 157, 11]\nclass = 1", fillcolor="#4fe88f"] ;
853 -> 855 ;
